svm_type c_svc
kernel_type linear
nr_class 2
total_sv 474
rho -1.0005910293335099
label 0 1
nr_sv 363 111
SV
0.0010366084236292504 1:8.3016823 2:2.056814 3:-4.1806986 4:1.3122289 5:3.3408078 6:0.91898986 7:0.32867219 8:0.65166908 9:0.52616056 10:0.70391777 11:0.64551321 12:0.78384461 13:0.031557995 14:-0.42052927 15:1.3073069 16:-0.51038207 17:1.2417703 18:0.94757536 19:-0.70670194 20:1.9223914 21:0.53542675 22:-0.67126838 23:1.0589909 24:-0.89876513 25:-0.490034 26:0.92855301 27:0.17678562 28:-0.82503786 29:-0.2239541 30:-0.17606899 31:-0.067782879 32:-0.73627649 33:0.49464539 34:-0.77292914 35:0.87226373 36:-0.25691409 37:-0.51496949 38:0.26222461 39:0.50020388 40:0.48955164 41:0.14275999 42:-0.014028574 43:0.080657812 44:-0.40725445 45:-0.24050309 46:-0.17832784 47:-0.095938134 48:-0.013991485 49:0.33927581 50:0.095112142 51:8.3015657 52:2.056917 53:-4.180715 54:1.3119903 55:3.3411018 56:0.91861711 57:0.32890238 58:0.65176908 59:0.52661107 60:0.70379705 61:0.64510155 62:0.78431365 63:0.031689861 64:-0.42125133 65:1.3073204 66:-0.50988941 67:1.2423153 68:0.94728702 69:-0.70655449 70:1.9231544 71:0.53552415 72:-0.67065554 73:1.0603575 74:-0.89822847 75:-0.4892076 76:0.92865374 77:0.1764861 78:-0.82450386 79:-0.22222827 80:-0.17642356 81:-0.068731535 82:-0.73508241 83:0.49546377 84:-0.77265838 85:0.87277198 86:-0.25718447 87:-0.51427515 88:0.2615018 89:0.50109901 90:0.48906427 91:0.14215869 92:-0.013862959 93:0.079376869 94:-0.40735153 95:-0.23985009 96:-0.1789741 97:-0.093664095 98:-0.012869359 99:0.33730082 100:0.093517773 101:8.3016829 102:2.0569607 103:-4.1805903 104:1.3126804 105:3.3406942 106:0.91904847 107:0.3289096 108:0.65182547 109:0.52676257 110:0.70384363 111:0.64539491 112:0.78428445 113:0.031799389 114:-0.41929391 115:1.3077332 116:-0.509992 117:1.2417819 118:0.94865233 119:-0.70630909 120:1.9233217 121:0.53577134 122:-0.67203441 123:1.0595255 124:-0.89777864 125:-0.4902177 126:0.92948278 127:0.17523916 128:-0.82395211 129:-0.22570727 130:-0.17359339 131:-0.068901274 132:-0.73562629 133:0.49549313 134:-0.77267029 135:0.87132449 136:-0.2591061 137:-0.51336245 138:0.26332904 139:0.49893905 140:0.49213929 141:0.14495069 142:-0.012050263 143:0.080015041 144:-0.40860006 145:-0.23952193 146:-0.17360678 147:-0.095074383 148:-0.01316257 149:0.33861933 150:0.096691979 151:8.3016578 152:2.0569576 153:-4.1804784 154:1.3123727 155:3.3405575 156:0.91896526 157:0.32882858 158:0.65135649 159:0.52636945 160:0.70351838 161:0.64594736 162:0.78366383 163:0.031835331 164:-0.42051746 165:1.3067158 166:-0.51059623 167:1.2421179 168:0.94808795 169:-0.70606797 170:1.9220922 171:0.53531956 172:-0.67229215 173:1.0586358 174:-0.89807239 175:-0.48976574 176:0.92902071 177:0.1755302 178:-0.82492566 179:-0.22392117 180:-0.17427162 181:-0.068753565 182:-0.73517121 183:0.4958771 184:-0.77424649 185:0.87135042 186:-0.25745182 187:-0.512697 188:0.26005872 189:0.49897318 190:0.48940413 191:0.14329435 192:-0.013327922 193:0.079364113 194:-0.40663671 195:-0.24065696 196:-0.17599522 197:-0.094664732 198:-0.014041433 199:0.33786979 200:0.093123998 201:8.3292965 202:2.0531489 203:-4.2023622 204:1.3064643 205:3.3817541 206:0.91117996 207:0.27623871 208:0.70874632 209:0.5430938 210:0.67169424 211:0.89097994 212:0.6834556 213:0.11363365 214:-1.1177335 215:1.4272538 216:-0.96857923 217:1.5384557 218:0.28543756 219:-1.0041738 220:1.9914982 221:0.86860404 222:-0.39003044 223:1.199493 224:-0.046394125 225:-0.58303178 226:0.69014946 227:-0.062665323 228:-0.45434262 229:0.16472503 230:0.36570173 231:-0.57299757 232:0.038711661 233:0.40621504 234:-0.86005192 235:0.94728187 236:-0.25677818 237:0.30463069 238:-0.32975956 239:0.24620253 240:0.53716073 241:0.022968706 242:-0.47695212 243:-0.71741845 244:-0.47969431 245:-0.30871849 246:-0.049219663 247:0.075421675 248:0.4264197 249:-0.37193931 250:0.026749523 
0.00082770018254140854 1:8.3016829 2:2.0569607 3:-4.1805903 4:1.3126804 5:3.3406942 6:0.91904847 7:0.3289096 8:0.65182547 9:0.52676257 10:0.70384363 11:0.64539491 12:0.78428445 13:0.031799389 14:-0.41929391 15:1.3077332 16:-0.509992 17:1.2417819 18:0.94865233 19:-0.70630909 20:1.9233217 21:0.53577134 22:-0.67203441 23:1.0595255 24:-0.89777864 25:-0.4902177 26:0.92948278 27:0.17523916 28:-0.82395211 29:-0.22570727 30:-0.17359339 31:-0.068901274 32:-0.73562629 33:0.49549313 34:-0.77267029 35:0.87132449 36:-0.2591061 37:-0.51336245 38:0.26332904 39:0.49893905 40:0.49213929 41:0.14495069 42:-0.012050263 43:0.080015041 44:-0.40860006 45:-0.23952193 46:-0.17360678 47:-0.095074383 48:-0.01316257 49:0.33861933 50:0.096691979 51:8.3016578 52:2.0569576 53:-4.1804784 54:1.3123727 55:3.3405575 56:0.91896526 57:0.32882858 58:0.65135649 59:0.52636945 60:0.70351838 61:0.64594736 62:0.78366383 63:0.031835331 64:-0.42051746 65:1.3067158 66:-0.51059623 67:1.2421179 68:0.94808795 69:-0.70606797 70:1.9220922 71:0.53531956 72:-0.67229215 73:1.0586358 74:-0.89807239 75:-0.48976574 76:0.92902071 77:0.1755302 78:-0.82492566 79:-0.22392117 80:-0.17427162 81:-0.068753565 82:-0.73517121 83:0.4958771 84:-0.77424649 85:0.87135042 86:-0.25745182 87:-0.512697 88:0.26005872 89:0.49897318 90:0.48940413 91:0.14329435 92:-0.013327922 93:0.079364113 94:-0.40663671 95:-0.24065696 96:-0.17599522 97:-0.094664732 98:-0.014041433 99:0.33786979 100:0.093123998 101:8.3016457 102:2.0568251 103:-4.1805891 104:1.3122611 105:3.3408041 106:0.91900816 107:0.32889603 108:0.651403 109:0.52627074 110:0.70367571 111:0.64610729 112:0.78387645 113:0.032132029 114:-0.4202725 115:1.3072775 116:-0.51049815 117:1.2417838 118:0.94790536 119:-0.70626415 120:1.9220117 121:0.53512848 122:-0.67140828 123:1.0581596 124:-0.89810175 125:-0.49005129 126:0.92923598 127:0.1750186 128:-0.82500965 129:-0.22381298 130:-0.17417922 131:-0.068502493 132:-0.734984 133:0.49524842 134:-0.77381187 135:0.87170691 136:-0.25734203 137:-0.51270565 138:0.26043059 139:0.49879583 140:0.48881539 141:0.14353895 142:-0.01393879 143:0.079568832 144:-0.40686908 145:-0.23983033 146:-0.1760125 147:-0.096747433 148:-0.013106149 149:0.33801514 150:0.094321137 151:8.3292965 152:2.0531489 153:-4.2023622 154:1.3064643 155:3.3817541 156:0.91117996 157:0.27623871 158:0.70874632 159:0.5430938 160:0.67169424 161:0.89097994 162:0.6834556 163:0.11363365 164:-1.1177335 165:1.4272538 166:-0.96857923 167:1.5384557 168:0.28543756 169:-1.0041738 170:1.9914982 171:0.86860404 172:-0.39003044 173:1.199493 174:-0.046394125 175:-0.58303178 176:0.69014946 177:-0.062665323 178:-0.45434262 179:0.16472503 180:0.36570173 181:-0.57299757 182:0.038711661 183:0.40621504 184:-0.86005192 185:0.94728187 186:-0.25677818 187:0.30463069 188:-0.32975956 189:0.24620253 190:0.53716073 191:0.022968706 192:-0.47695212 193:-0.71741845 194:-0.47969431 195:-0.30871849 196:-0.049219663 197:0.075421675 198:0.4264197 199:-0.37193931 200:0.026749523 201:8.2910162 202:2.0477026 203:-4.2208397 204:1.2287255 205:3.3590551 206:0.83727106 207:0.41778128 208:0.74347268 209:0.69164834 210:0.61401105 211:0.99813484 212:0.092125315 213:1.6880157 214:-0.73008521 215:1.3492279 216:-1.5678373 217:0.88592914 218:0.77398015 219:0.98474178 220:0.25099332 221:0.17550213 222:-0.83782203 223:-0.84864387 224:-0.52965816 225:-0.82950088 226:1.244156 227:-0.67755775 228:-0.81147921 229:-0.34334936 230:-0.079408956 231:-0.14695007 232:-0.72391497 233:0.56994411 234:-0.68658348 235:0.98044023 236:-0.12166931 237:-0.55676303 238:0.37032696 239:0.40789691 240:0.67574056 241:0.28165296 242:-0.1183091 243:-0.18959384 244:-0.40588588 245:-0.29572622 246:-0.087218404 247:-0.0064342168 248:0.17429929 249:-0.026432991 250:0.067440343 
0.0024259406463238166 1:8.2291553 2:2.0638583 3:-4.1516506 4:1.1771974 5:3.4800371 6:0.86096102 7:-0.27788705 8:-1.569089 9:-1.5325609 10:-3.3601517 11:1.3708073 12:-0.12618578 13:1.1936519 14:1.6114677 15:0.57727407 16:0.53168508 17:-0.84877279 18:1.1476593 19:0.75731417 20:0.73966584 21:0.19459926 22:-0.33937572 23:0.41152154 24:-0.20122487 25:0.3368885 26:0.27972619 27:-0.39167125 28:0.13911014 29:-0.073921801 30:0.48154179 31:-0.35859991 32:0.34600799 33:0.27793681 34:-0.063342814 35:-0.023770934 36:-0.0047008408 37:0.41347198 38:-0.12795686 39:-0.0016102829 40:0.45656655 41:0.20389787 42:-0.11923069 43:-0.29462981 44:-0.2112691 45:-0.067869067 46:-0.066118671 47:0.15162514 48:0.25550275 49:0.34759175 50:0.15731999 51:8.1902228 52:2.059461 53:-4.1786493 54:1.1366076 55:3.4216568 56:0.89387314 57:-0.2967193 58:-1.7087665 59:-1.574705 60:-3.2689983 61:1.0551983 62:0.35414201 63:-0.037166328 64:2.1985245 65:0.97506938 66:0.77426698 67:-0.36204228 68:0.17085982 69:-0.13375296 70:1.1802982 71:0.44313276 72:0.004614414 73:-0.53614188 74:0.76083084 75:0.22299806 76:0.58502032 77:-1.0420163 78:0.018619594 79:-0.23078222 80:0.34056368 81:0.032572969 82:-0.29818403 83:0.3975312 84:-0.15336619 85:0.00067435732 86:0.027551068 87:-0.41915098 88:0.1834379 89:-4.8294719e-05 90:0.35457918 91:0.017756132 92:-0.1518209 93:0.042901262 94:0.096469869 95:-0.24378361 96:-0.060543896 97:0.16078946 98:0.43211394 99:0.24792276 100:0.01543144 101:8.1839788 102:2.0557236 103:-4.1798721 104:1.1328517 105:3.4203068 106:0.88835446 107:-0.29627256 108:-1.7204429 109:-1.607363 110:-3.2480395 111:0.89268359 112:0.46669845 113:-0.4371565 114:2.1805105 115:1.1124917 116:0.63854036 117:-0.22332131 118:-0.14018348 119:-0.099162339 120:1.1333976 121:0.41019564 122:-0.054844284 123:-0.81956063 124:0.70676946 125:0.096609982 126:0.7389089 127:-0.96296968 128:-0.063813513 129:-0.29288287 130:0.12784327 131:0.1215742 132:-0.47052909 133:0.32441327 134:-0.15568415 135:0.079351896 136:0.11757717 137:-0.43073009 138:0.15819061 139:0.014453096 140:0.27768639 141:-0.07764035 142:-0.22905076 143:-0.04316894 144:0.13787978 145:-0.20519927 146:-0.084533423 147:0.18684003 148:0.52015824 149:0.12328055 150:0.015833778 151:8.212762 152:2.0661929 153:-4.1594269 154:1.1637379 155:3.4635018 156:0.88084988 157:-0.28345876 158:-1.6514424 159:-1.5246319 160:-3.331739 161:1.3294719 162:0.05830365 163:0.87215156 164:2.0073966 165:0.66737066 166:0.76061024 167:-0.71337466 168:0.91607644 169:0.29850048 170:1.0052253 171:0.3437951 172:-0.09903843 173:0.22510941 174:0.32045591 175:0.4005053 176:0.26753613 177:-0.76261606 178:0.16710718 179:-0.096368218 180:0.67701459 181:-0.29722706 182:0.27491954 183:0.40113567 184:-0.089996107 185:-0.050229999 186:-0.049071056 187:0.090444834 188:0.097134893 189:0.017565784 190:0.50292254 191:0.25815452 192:-0.0047830433 193:-0.037436725 194:-0.2247317 195:-0.088136113 196:-0.11359685 197:0.043581415 198:0.1359925 199:0.53592803 200:0.15075488 201:8.2623561 202:2.0602932 203:-4.162121 204:1.2040573 205:3.5195055 206:0.80243978 207:-0.28450571 208:-1.4087786 209:-1.5879657 210:-3.4101112 211:1.2575317 212:-0.44198377 213:1.4063876 214:0.3413019 215:0.56423944 216:-0.46509262 217:-0.86524429 218:0.89623142 219:1.5453379 220:0.034135453 221:-0.18363181 222:-0.79739628 223:-0.11543233 224:-0.84981315 225:0.01303896 226:0.65327695 227:-0.0017735813 228:-0.16298182 229:-0.30741878 230:-0.19107214 231:-0.025898117 232:-0.15999197 233:0.032542044 234:0.017017441 235:0.33670239 236:0.23720326 237:0.080114299 238:-0.074472756 239:0.13588832 240:0.24692082 241:-0.0004502593 242:-0.25529859 243:-0.43265952 244:-0.089857706 245:-0.032509758 246:-0.17084949 247:0.2608964 248:0.53774913 249:0.0063755911 250:0.087383568 
0.0049824679183238024 1:8.2291553 2:2.0638583 3:-4.1516506 4:1.1771974 5:3.4800371 6:0.86096102 7:-0.27788705 8:-1.569089 9:-1.5325609 10:-3.3601517 11:1.3708073 12:-0.12618578 13:1.1936519 14:1.6114677 15:0.57727407 16:0.53168508 17:-0.84877279 18:1.1476593 19:0.75731417 20:0.73966584 21:0.19459926 22:-0.33937572 23:0.41152154 24:-0.20122487 25:0.3368885 26:0.27972619 27:-0.39167125 28:0.13911014 29:-0.073921801 30:0.48154179 31:-0.35859991 32:0.34600799 33:0.27793681 34:-0.063342814 35:-0.023770934 36:-0.0047008408 37:0.41347198 38:-0.12795686 39:-0.0016102829 40:0.45656655 41:0.20389787 42:-0.11923069 43:-0.29462981 44:-0.2112691 45:-0.067869067 46:-0.066118671 47:0.15162514 48:0.25550275 49:0.34759175 50:0.15731999 51:8.1902228 52:2.059461 53:-4.1786493 54:1.1366076 55:3.4216568 56:0.89387314 57:-0.2967193 58:-1.7087665 59:-1.574705 60:-3.2689983 61:1.0551983 62:0.35414201 63:-0.037166328 64:2.1985245 65:0.97506938 66:0.77426698 67:-0.36204228 68:0.17085982 69:-0.13375296 70:1.1802982 71:0.44313276 72:0.004614414 73:-0.53614188 74:0.76083084 75:0.22299806 76:0.58502032 77:-1.0420163 78:0.018619594 79:-0.23078222 80:0.34056368 81:0.032572969 82:-0.29818403 83:0.3975312 84:-0.15336619 85:0.00067435732 86:0.027551068 87:-0.41915098 88:0.1834379 89:-4.8294719e-05 90:0.35457918 91:0.017756132 92:-0.1518209 93:0.042901262 94:0.096469869 95:-0.24378361 96:-0.060543896 97:0.16078946 98:0.43211394 99:0.24792276 100:0.01543144 101:8.212762 102:2.0661929 103:-4.1594269 104:1.1637379 105:3.4635018 106:0.88084988 107:-0.28345876 108:-1.6514424 109:-1.5246319 110:-3.331739 111:1.3294719 112:0.05830365 113:0.87215156 114:2.0073966 115:0.66737066 116:0.76061024 117:-0.71337466 118:0.91607644 119:0.29850048 120:1.0052253 121:0.3437951 122:-0.09903843 123:0.22510941 124:0.32045591 125:0.4005053 126:0.26753613 127:-0.76261606 128:0.16710718 129:-0.096368218 130:0.67701459 131:-0.29722706 132:0.27491954 133:0.40113567 134:-0.089996107 135:-0.050229999 136:-0.049071056 137:0.090444834 138:0.097134893 139:0.017565784 140:0.50292254 141:0.25815452 142:-0.0047830433 143:-0.037436725 144:-0.2247317 145:-0.088136113 146:-0.11359685 147:0.043581415 148:0.1359925 149:0.53592803 150:0.15075488 151:8.2529732 152:2.0621189 153:-4.1562032 154:1.1933394 155:3.5098857 156:0.8178626 157:-0.27700707 158:-1.451625 159:-1.5666496 160:-3.4002679 161:1.3163292 162:-0.37731818 163:1.4414699 164:0.72844416 165:0.54347922 166:-0.13734411 167:-0.90354134 168:1.0800828 169:1.4092663 170:0.20953341 171:-0.10330339 172:-0.70333794 173:0.15801762 174:-0.8153593 175:0.1207646 176:0.52116221 177:0.01408524 178:-0.066603088 179:-0.21974501 180:-0.019693508 181:-0.17043304 182:0.034690805 183:0.060325763 184:-0.022657569 185:0.20265855 186:0.19532691 187:0.33812113 188:-0.19024531 189:0.091586936 190:0.25624372 191:0.0050393318 192:-0.2432157 193:-0.50620266 194:-0.13716851 195:-0.04900443 196:-0.11457185 197:0.27599802 198:0.5072565 199:-0.013840491 200:0.083492537 201:8.2622995 202:2.060284 203:-4.1621372 204:1.2042168 205:3.5197235 206:0.80243394 207:-0.28440749 208:-1.408881 209:-1.5876778 210:-3.4099103 211:1.2576093 212:-0.44208012 213:1.4063376 214:0.34139996 215:0.56431244 216:-0.4650445 217:-0.86640078 218:0.89654337 219:1.5457953 220:0.035173775 221:-0.18311953 222:-0.7970462 223:-0.11521061 224:-0.84913399 225:0.012169826 226:0.65334058 227:-0.0022799677 228:-0.16222333 229:-0.30818099 230:-0.19201415 231:-0.025087309 232:-0.15976614 233:0.033315419 234:0.016670338 235:0.33672577 236:0.23639589 237:0.079517735 238:-0.073890536 239:0.1361996 240:0.24689292 241:-0.00063597417 242:-0.25394589 243:-0.43261272 244:-0.087486367 245:-0.033192427 246:-0.17149897 247:0.26061344 248:0.53760639 249:0.0078845205 250:0.085555122 
0.00087117648868780928 1:8.1902228 2:2.059461 3:-4.1786493 4:1.1366076 5:3.4216568 6:0.89387314 7:-0.2967193 8:-1.7087665 9:-1.574705 10:-3.2689983 11:1.0551983 12:0.35414201 13:-0.037166328 14:2.1985245 15:0.97506938 16:0.77426698 17:-0.36204228 18:0.17085982 19:-0.13375296 20:1.1802982 21:0.44313276 22:0.004614414 23:-0.53614188 24:0.76083084 25:0.22299806 26:0.58502032 27:-1.0420163 28:0.018619594 29:-0.23078222 30:0.34056368 31:0.032572969 32:-0.29818403 33:0.3975312 34:-0.15336619 35:0.00067435732 36:0.027551068 37:-0.41915098 38:0.1834379 39:-4.8294719e-05 40:0.35457918 41:0.017756132 42:-0.1518209 43:0.042901262 44:0.096469869 45:-0.24378361 46:-0.060543896 47:0.16078946 48:0.43211394 49:0.24792276 50:0.01543144 51:8.1839788 52:2.0557236 53:-4.1798721 54:1.1328517 55:3.4203068 56:0.88835446 57:-0.29627256 58:-1.7204429 59:-1.607363 60:-3.2480395 61:0.89268359 62:0.46669845 63:-0.4371565 64:2.1805105 65:1.1124917 66:0.63854036 67:-0.22332131 68:-0.14018348 69:-0.099162339 70:1.1333976 71:0.41019564 72:-0.054844284 73:-0.81956063 74:0.70676946 75:0.096609982 76:0.7389089 77:-0.96296968 78:-0.063813513 79:-0.29288287 80:0.12784327 81:0.1215742 82:-0.47052909 83:0.32441327 84:-0.15568415 85:0.079351896 86:0.11757717 87:-0.43073009 88:0.15819061 89:0.014453096 90:0.27768639 91:-0.07764035 92:-0.22905076 93:-0.04316894 94:0.13787978 95:-0.20519927 96:-0.084533423 97:0.18684003 98:0.52015824 99:0.12328055 100:0.015833778 101:8.2623561 102:2.0602932 103:-4.162121 104:1.2040573 105:3.5195055 106:0.80243978 107:-0.28450571 108:-1.4087786 109:-1.5879657 110:-3.4101112 111:1.2575317 112:-0.44198377 113:1.4063876 114:0.3413019 115:0.56423944 116:-0.46509262 117:-0.86524429 118:0.89623142 119:1.5453379 120:0.034135453 121:-0.18363181 122:-0.79739628 123:-0.11543233 124:-0.84981315 125:0.01303896 126:0.65327695 127:-0.0017735813 128:-0.16298182 129:-0.30741878 130:-0.19107214 131:-0.025898117 132:-0.15999197 133:0.032542044 134:0.017017441 135:0.33670239 136:0.23720326 137:0.080114299 138:-0.074472756 139:0.13588832 140:0.24692082 141:-0.0004502593 142:-0.25529859 143:-0.43265952 144:-0.089857706 145:-0.032509758 146:-0.17084949 147:0.2608964 148:0.53774913 149:0.0063755911 150:0.087383568 151:8.2622995 152:2.060284 153:-4.1621372 154:1.2042168 155:3.5197235 156:0.80243394 157:-0.28440749 158:-1.408881 159:-1.5876778 160:-3.4099103 161:1.2576093 162:-0.44208012 163:1.4063376 164:0.34139996 165:0.56431244 166:-0.4650445 167:-0.86640078 168:0.89654337 169:1.5457953 170:0.035173775 171:-0.18311953 172:-0.7970462 173:-0.11521061 174:-0.84913399 175:0.012169826 176:0.65334058 177:-0.0022799677 178:-0.16222333 179:-0.30818099 180:-0.19201415 181:-0.025087309 182:-0.15976614 183:0.033315419 184:0.016670338 185:0.33672577 186:0.23639589 187:0.079517735 188:-0.073890536 189:0.1361996 190:0.24689292 191:-0.00063597417 192:-0.25394589 193:-0.43261272 194:-0.087486367 195:-0.033192427 196:-0.17149897 197:0.26061344 198:0.53760639 199:0.0078845205 200:0.085555122 201:8.2623007 202:2.0603155 203:-4.1620435 204:1.2040511 205:3.5197066 206:0.80254027 207:-0.28442096 208:-1.4090699 209:-1.5877371 210:-3.4098802 211:1.2575087 212:-0.4416006 213:1.4060837 214:0.34144612 215:0.56391436 216:-0.46607237 217:-0.86593222 218:0.8965859 219:1.5456926 220:0.034612154 221:-0.1833244 222:-0.79694318 223:-0.11506968 224:-0.85006804 225:0.012597876 226:0.65381964 227:-0.0016846813 228:-0.16283377 229:-0.30791414 230:-0.19121704 231:-0.025238824 232:-0.16020642 233:0.032919357 234:0.01633308 235:0.33651445 236:0.23636436 237:0.079918577 238:-0.074083675 239:0.1364166 240:0.24673768 241:0.0018596449 242:-0.25450884 243:-0.43275517 244:-0.0891554 245:-0.031684384 246:-0.1717995 247:0.26150485 248:0.53625061 249:0.0067643203 250:0.087581714 
0.00069620962164330859 1:7.9993012 2:0.9989282 3:-4.4296846 4:0.39098529 5:2.7774849 6:0.92249195 7:-0.27169744 8:0.42773621 9:-0.33544434 10:0.059734513 11:0.64069789 12:-0.17147855 13:-0.087247513 14:2.7635199 15:0.8964077 16:0.099278908 17:0.52063143 18:0.09613169 19:-0.95187682 20:0.27428426 21:0.30370537 22:0.049410576 23:-1.2257945 24:1.0638244 25:0.46295297 26:-0.88644956 27:0.15204487 28:-0.21684455 29:0.51938481 30:0.25178427 31:1.2278027 32:-0.22817043 33:-0.16826846 34:0.66349354 35:-0.45151032 36:-0.21341372 37:-0.014715633 38:0.16709312 39:-0.31780805 40:0.15975256 41:-0.47057165 42:-0.642029 43:0.51201258 44:0.63854751 45:0.23807362 46:0.23728431 47:0.60712849 48:0.40961113 49:0.34030086 50:-0.069622608 51:8.0753835 52:1.0012475 53:-4.4136927 54:0.46045437 55:2.877 56:0.83464739 57:-0.26058093 58:0.73699256 59:-0.33592908 60:-0.091221411 61:0.92099547 62:-1.0221369 63:1.5502864 64:0.90594328 65:0.41636603 66:-1.0866835 67:-0.054690149 68:0.98466099 69:0.72711682 70:-0.86323174 71:-0.31400943 72:-0.73629683 73:-0.65130726 74:-0.54605796 75:0.30857545 76:-0.8956248 77:1.168521 78:-0.35759221 79:0.47482103 80:-0.16507559 81:1.1184941 82:0.013505538 83:-0.50187634 84:0.83321083 85:-0.15842559 86:-0.040060319 87:0.51587329 88:-0.081759375 89:-0.19443821 90:0.10407169 91:-0.44090564 92:-0.69768829 93:0.066564293 94:0.41403605 95:0.43916888 96:0.12898063 97:0.6899747 98:0.46072666 99:0.1787549 100:0.0065424168 101:8.0924726 102:0.994752 103:-4.4302316 104:0.46458035 105:2.8916993 106:0.80090073 107:-0.31350723 108:0.83880212 109:-0.41036676 110:-0.077517959 111:0.73130345 112:-1.0466452 113:1.0912026 114:-0.14406344 115:0.54815231 116:-1.8185338 117:0.2212531 118:0.15967244 119:0.55819344 120:-1.0611439 121:-0.24215523 122:-0.70380753 123:-1.4575634 124:0.10693597 125:0.11959073 126:-0.73369895 127:0.55850832 128:-0.4427028 129:0.42075356 130:-0.074403987 131:1.2616328 132:-0.24427333 133:-0.39983213 134:0.78131714 135:-0.11173087 136:0.038236683 137:-0.12350203 138:0.25412423 139:-0.18698054 140:0.19895077 141:-0.34462025 142:-0.45489549 143:0.50441054 144:0.51989149 145:0.40919064 146:0.14075929 147:0.65247584 148:0.29552187 149:0.45592464 150:-0.016963905 151:8.11611 152:0.98099262 153:-4.4310371 154:0.48503396 155:2.9183774 156:0.82832028 157:-0.39102983 158:0.81937237 159:-0.47763476 160:0.011442802 161:0.63631683 162:-0.68782879 163:0.035926161 164:-0.74420289 165:0.68643002 166:-1.7988058 167:0.71422112 168:-0.59300841 169:-0.73258562 170:-0.22162988 171:0.40007654 172:-0.18908054 173:-0.89303081 174:1.3057948 175:0.24287486 176:-1.1974513 177:0.017472067 178:-0.01336526 179:0.93796518 180:0.90385638 181:0.65147441 182:0.77344324 183:-0.33028107 184:0.62995807 185:-0.37185844 186:-0.045429552 187:0.83103602 188:-0.30730989 189:-0.48842516 190:0.37240223 191:-0.29160262 192:-0.65362455 193:0.013077329 194:0.25302872 195:0.36672653 196:0.31691912 197:0.70609038 198:0.33564082 199:0.25210534 200:0.031044888 201:8.1832911 202:0.52434331 203:-4.3884198 204:0.25530245 205:2.747353 206:0.73536871 207:-0.51266898 208:1.4207276 209:-0.57179361 210:0.82302969 211:-0.3946436 212:-0.77922878 213:0.34588654 214:-0.62587146 215:-0.6568274 216:-1.7363342 217:-0.085931498 218:-1.3883527 219:0.26048861 220:0.62381054 221:1.6631639 222:-0.55092059 223:-0.48568719 224:1.6145706 225:0.23849578 226:-0.37644862 227:-0.26457932 228:0.84032025 229:0.02151522 230:0.58096982 231:-0.010793268 232:0.66595653 233:-0.27735479 234:0.14328581 235:-0.59168166 236:0.15040712 237:0.91264367 238:-0.56295403 239:-0.27317031 240:0.41177782 241:-0.64803073 242:-0.80642258 243:0.451133 244:0.4802382 245:0.63739127 246:0.58498135 247:0.65181687 248:0.34343148 249:0.31869282 250:-0.11974615 
0.00038926463250864052 1:8.0852001 2:0.99762902 3:-4.4202034 4:0.46841911 5:2.88344 6:0.80923694 7:-0.28577262 8:0.78805493 9:-0.36988039 10:-0.093098617 11:0.82517039 12:-1.0725259 13:1.3982073 14:0.34672399 15:0.47936797 16:-1.5211949 17:0.058079338 18:0.59258294 19:0.76683086 20:-1.0294182 21:-0.34734757 22:-0.77689145 23:-1.1074699 24:-0.33499386 25:0.18860628 26:-0.76072001 27:0.95403694 28:-0.43592508 29:0.38923377 30:-0.27513696 31:1.2605193 32:-0.22323391 33:-0.48466853 34:0.8680153 35:-0.080019796 36:-0.029346799 37:0.10915393 38:0.091930066 39:-0.17426336 40:0.090342586 41:-0.42295101 42:-0.63847578 43:0.29797671 44:0.54385543 45:0.38889257 46:0.070704109 47:0.66770224 48:0.43666591 49:0.29604821 50:-0.011890013 51:8.1160997 52:0.98098325 53:-4.4310929 54:0.48523592 55:2.918589 56:0.82831985 57:-0.39125535 58:0.81928708 59:-0.47731286 60:0.011634034 61:0.6366884 62:-0.68781735 63:0.036238914 64:-0.74432138 65:0.68564715 66:-1.798359 67:0.71406481 68:-0.59331952 69:-0.73252098 70:-0.22188462 71:0.39986864 72:-0.188576 73:-0.89331178 74:1.3052038 75:0.24262851 76:-1.196966 77:0.018111586 78:-0.013659639 79:0.93794372 80:0.9032583 81:0.6513576 82:0.77330407 83:-0.33068135 84:0.63107693 85:-0.37129321 86:-0.04504956 87:0.83079804 88:-0.3069807 89:-0.48746108 90:0.37224436 91:-0.29164894 92:-0.65442962 93:0.012994522 94:0.25385305 95:0.36603134 96:0.31746808 97:0.70706087 98:0.3361435 99:0.25165047 100:0.031617588 101:8.11611 102:0.98099262 103:-4.4310371 104:0.48503396 105:2.9183774 106:0.82832028 107:-0.39102983 108:0.81937237 109:-0.47763476 110:0.011442802 111:0.63631683 112:-0.68782879 113:0.035926161 114:-0.74420289 115:0.68643002 116:-1.7988058 117:0.71422112 118:-0.59300841 119:-0.73258562 120:-0.22162988 121:0.40007654 122:-0.18908054 123:-0.89303081 124:1.3057948 125:0.24287486 126:-1.1974513 127:0.017472067 128:-0.01336526 129:0.93796518 130:0.90385638 131:0.65147441 132:0.77344324 133:-0.33028107 134:0.62995807 135:-0.37185844 136:-0.045429552 137:0.83103602 138:-0.30730989 139:-0.48842516 140:0.37240223 141:-0.29160262 142:-0.65362455 143:0.013077329 144:0.25302872 145:0.36672653 146:0.31691912 147:0.70609038 148:0.33564082 149:0.25210534 150:0.031044888 151:8.1832911 152:0.52434331 153:-4.3884198 154:0.25530245 155:2.747353 156:0.73536871 157:-0.51266898 158:1.4207276 159:-0.57179361 160:0.82302969 161:-0.3946436 162:-0.77922878 163:0.34588654 164:-0.62587146 165:-0.6568274 166:-1.7363342 167:-0.085931498 168:-1.3883527 169:0.26048861 170:0.62381054 171:1.6631639 172:-0.55092059 173:-0.48568719 174:1.6145706 175:0.23849578 176:-0.37644862 177:-0.26457932 178:0.84032025 179:0.02151522 180:0.58096982 181:-0.010793268 182:0.66595653 183:-0.27735479 184:0.14328581 185:-0.59168166 186:0.15040712 187:0.91264367 188:-0.56295403 189:-0.27317031 190:0.41177782 191:-0.64803073 192:-0.80642258 193:0.451133 194:0.4802382 195:0.63739127 196:0.58498135 197:0.65181687 198:0.34343148 199:0.31869282 200:-0.11974615 201:8.1833076 202:0.52438751 203:-4.3884748 204:0.25558251 205:2.7474372 206:0.73536454 207:-0.51290406 208:1.4207183 209:-0.57194474 210:0.82328699 211:-0.39444803 212:-0.7790994 213:0.34635186 214:-0.6260205 215:-0.65713934 216:-1.7357161 217:-0.086157535 218:-1.388927 219:0.26011626 220:0.62371033 221:1.6637165 222:-0.54973135 223:-0.48557136 224:1.6142127 225:0.23843758 226:-0.37605575 227:-0.26410257 228:0.83977507 229:0.02134334 230:0.58054083 231:-0.011016769 232:0.66627228 233:-0.27756476 234:0.14374402 235:-0.59151792 236:0.15092944 237:0.91318554 238:-0.56327953 239:-0.27222614 240:0.41171125 241:-0.64779024 242:-0.80751246 243:0.45147653 244:0.48109463 245:0.63733185 246:0.585636 247:0.65246129 248:0.34221502 249:0.31992505 250:-0.11849251 
0.0018152551678266102 1:8.1833219 2:0.52458448 3:-4.3884621 4:0.25562639 5:2.7472074 6:0.73498061 7:-0.51244352 8:1.4201781 9:-0.57181578 10:0.8232998 11:-0.39404951 12:-0.77912315 13:0.34648468 14:-0.62624203 15:-0.65741501 16:-1.7359873 17:-0.086354559 18:-1.389123 19:0.26072115 20:0.62320444 21:1.6627293 22:-0.55022753 23:-0.48648511 24:1.6138796 25:0.23836286 26:-0.3755177 27:-0.26366512 28:0.84018058 29:0.021182564 30:0.58051079 31:-0.011088514 32:0.66563105 33:-0.27611643 34:0.14255745 35:-0.59323321 36:0.15119115 37:0.91236424 38:-0.56263843 39:-0.27185033 40:0.41167388 41:-0.64847802 42:-0.80690548 43:0.45112768 44:0.48011929 45:0.6367989 46:0.58640409 47:0.65074515 48:0.3441405 49:0.3193758 50:-0.12001602 51:8.1568338 52:0.53877401 53:-4.3846611 54:0.23526857 55:2.7171759 56:0.7088036 57:-0.42600906 58:1.4262918 59:-0.4910072 60:0.72739139 61:-0.27119371 62:-1.1520375 63:1.5104956 64:0.12991288 65:-0.81919771 66:-1.6658649 67:-0.63672181 68:-0.49420472 69:1.6344885 70:-0.21708266 71:0.97939252 72:-1.0961107 73:-0.94619619 74:0.25773529 75:0.13562402 76:0.086537372 77:0.41436184 78:0.4075865 79:-0.51354917 80:-0.48149407 81:0.60764814 82:-0.36246569 83:-0.37869823 84:0.32815682 85:-0.317459 86:0.21074661 87:0.019544839 88:-0.048047613 89:0.038135109 90:0.19764161 91:-0.72855625 92:-0.66840788 93:0.88458191 94:0.77325785 95:0.68299564 96:0.38100428 97:0.60760947 98:0.35390966 99:0.47309111 100:-0.17166912 101:8.1597593 102:0.53828419 103:-4.3875997 104:0.234743 105:2.7202422 106:0.70776742 107:-0.43501034 108:1.4402851 109:-0.50447298 110:0.73427073 111:-0.29962277 112:-1.1385111 113:1.4012552 114:-0.025449487 115:-0.79485531 116:-1.7567848 117:-0.57935257 118:-0.63624169 119:1.5505105 120:-0.21426881 121:1.0218563 122:-1.0646361 123:-1.0495053 124:0.41535866 125:0.11478264 126:0.087259346 127:0.27694386 128:0.41110643 129:-0.49412417 130:-0.39733236 131:0.59935046 132:-0.35004112 133:-0.34658594 134:0.29551813 135:-0.33032372 136:0.23437795 137:-0.041107177 138:-0.0020448156 139:0.030570273 140:0.23922248 141:-0.70301095 142:-0.60834223 143:0.94185031 144:0.74846594 145:0.67983937 146:0.40757136 147:0.59673181 148:0.30239236 149:0.5237907 150:-0.16904923 151:8.1879394 152:0.55048678 153:-4.3553756 154:0.32295755 155:2.7260894 156:0.79599706 157:-0.56411695 158:1.3806692 159:-0.68208437 160:0.80722867 161:-0.51621379 162:-0.47483577 163:-0.28913312 164:-0.039857264 165:-0.79684989 166:-0.83132053 167:-0.041277201 168:-0.75795489 169:-0.4022383 170:1.6447635 171:1.5482702 172:-0.79032364 173:1.2186544 174:0.31677111 175:0.42655527 176:-0.35082847 177:1.2839203 178:0.56778023 179:-0.17426147 180:-0.37032529 181:0.49758656 182:-0.059339588 183:-0.53152446 184:0.15234934 185:-0.34792071 186:0.11180223 187:0.34554364 188:-0.44435283 189:0.024535924 190:-0.010317691 191:-1.0054438 192:-0.79495761 193:0.84356103 194:0.81563924 195:0.73130904 196:0.33937536 197:0.62670875 198:0.39791957 199:0.46782541 200:-0.24179098 201:8.191413 202:0.55049291 203:-4.3563716 204:0.32330321 205:2.7295655 206:0.79576768 207:-0.57335716 208:1.3897083 209:-0.68015496 210:0.79880627 211:-0.48740767 212:-0.48439623 213:-0.28357002 214:-0.1251113 215:-0.78315169 216:-0.88193834 217:-0.0049908855 218:-0.83633582 219:-0.44542904 220:1.663119 221:1.5866647 222:-0.76125026 223:1.2509739 224:0.4090999 225:0.41578392 226:-0.38003799 227:1.2704672 228:0.61026797 229:-0.1398543 230:-0.31741877 231:0.4431031 232:0.020140227 233:-0.54401709 234:0.15099991 235:-0.33380087 236:0.10522621 237:0.424614 238:-0.49875804 239:0.0028688873 240:-0.0041222485 241:-1.009883 242:-0.83238204 243:0.76266933 244:0.80656846 245:0.72549838 246:0.35390138 247:0.64107543 248:0.43315183 249:0.41172477 250:-0.2436391 
0.0069081706426240112 1:8.1241472 2:0.54618021 3:-4.3596167 4:0.21248206 5:2.6848594 6:0.77452702 7:-0.3727936 8:1.2538196 9:-0.39294304 10:0.74734687 11:-0.01012985 12:-0.96558377 13:1.8754243 14:1.7956212 15:-0.95256706 16:-0.38166738 17:-0.90865295 18:0.49059933 19:1.3844922 20:0.36126191 21:1.1416397 22:-0.88513073 23:0.23976742 24:-0.055963262 25:0.51101528 26:-0.33553946 27:0.83031641 28:0.6905765 29:-0.25368834 30:-0.12376725 31:0.18005918 32:0.2785059 33:-0.35825176 34:0.27163729 35:-0.63463822 36:0.033769678 37:1.0158796 38:-0.53470201 39:-0.083483885 40:0.21404816 41:-0.74259381 42:-0.82427042 43:0.44334047 44:0.54739724 45:0.66796313 46:0.50692341 47:0.64316414 48:0.38432822 49:0.30071107 50:-0.14014812 51:8.1597593 52:0.53828419 53:-4.3875997 54:0.234743 55:2.7202422 56:0.70776742 57:-0.43501034 58:1.4402851 59:-0.50447298 60:0.73427073 61:-0.29962277 62:-1.1385111 63:1.4012552 64:-0.025449487 65:-0.79485531 66:-1.7567848 67:-0.57935257 68:-0.63624169 69:1.5505105 70:-0.21426881 71:1.0218563 72:-1.0646361 73:-1.0495053 74:0.41535866 75:0.11478264 76:0.087259346 77:0.27694386 78:0.41110643 79:-0.49412417 80:-0.39733236 81:0.59935046 82:-0.35004112 83:-0.34658594 84:0.29551813 85:-0.33032372 86:0.23437795 87:-0.041107177 88:-0.0020448156 89:0.030570273 90:0.23922248 91:-0.70301095 92:-0.60834223 93:0.94185031 94:0.74846594 95:0.67983937 96:0.40757136 97:0.59673181 98:0.30239236 99:0.5237907 100:-0.16904923 101:8.1879394 102:0.55048678 103:-4.3553756 104:0.32295755 105:2.7260894 106:0.79599706 107:-0.56411695 108:1.3806692 109:-0.68208437 110:0.80722867 111:-0.51621379 112:-0.47483577 113:-0.28913312 114:-0.039857264 115:-0.79684989 116:-0.83132053 117:-0.041277201 118:-0.75795489 119:-0.4022383 120:1.6447635 121:1.5482702 122:-0.79032364 123:1.2186544 124:0.31677111 125:0.42655527 126:-0.35082847 127:1.2839203 128:0.56778023 129:-0.17426147 130:-0.37032529 131:0.49758656 132:-0.059339588 133:-0.53152446 134:0.15234934 135:-0.34792071 136:0.11180223 137:0.34554364 138:-0.44435283 139:0.024535924 140:-0.010317691 141:-1.0054438 142:-0.79495761 143:0.84356103 144:0.81563924 145:0.73130904 146:0.33937536 147:0.62670875 148:0.39791957 149:0.46782541 150:-0.24179098 151:8.191413 152:0.55049291 153:-4.3563716 154:0.32330321 155:2.7295655 156:0.79576768 157:-0.57335716 158:1.3897083 159:-0.68015496 160:0.79880627 161:-0.48740767 162:-0.48439623 163:-0.28357002 164:-0.1251113 165:-0.78315169 166:-0.88193834 167:-0.0049908855 168:-0.83633582 169:-0.44542904 170:1.663119 171:1.5866647 172:-0.76125026 173:1.2509739 174:0.4090999 175:0.41578392 176:-0.38003799 177:1.2704672 178:0.61026797 179:-0.1398543 180:-0.31741877 181:0.4431031 182:0.020140227 183:-0.54401709 184:0.15099991 185:-0.33380087 186:0.10522621 187:0.424614 188:-0.49875804 189:0.0028688873 190:-0.0041222485 191:-1.009883 192:-0.83238204 193:0.76266933 194:0.80656846 195:0.72549838 196:0.35390138 197:0.64107543 198:0.43315183 199:0.41172477 200:-0.2436391 201:8.1878159 202:0.52528755 203:-4.3847152 204:0.26265426 205:2.7505235 206:0.74950793 207:-0.52762299 208:1.4087436 209:-0.59126579 210:0.82801848 211:-0.38682365 212:-0.7081821 213:0.15329291 214:-0.60027009 215:-0.65964932 216:-1.5744482 217:-0.0048316474 218:-1.3550581 219:0.0045204519 220:0.90125395 221:1.7362256 222:-0.50616085 223:-0.064364617 224:1.5225382 225:0.27734583 226:-0.44120031 227:-0.031126511 228:0.87735221 229:0.095876467 230:0.55733061 231:-0.048600149 232:0.74840345 233:-0.35238457 234:0.12779598 235:-0.57886676 236:0.17062806 237:1.0761406 238:-0.71015494 239:-0.27454148 240:0.35304475 241:-0.75871749 242:-0.92578909 243:0.29706054 244:0.49120724 245:0.60526212 246:0.56730958 247:0.68502553 248:0.45002314 249:0.15687074 250:-0.156444 
0.0025283814700693755 1:8.1878159 2:0.52528755 3:-4.3847152 4:0.26265426 5:2.7505235 6:0.74950793 7:-0.52762299 8:1.4087436 9:-0.59126579 10:0.82801848 11:-0.38682365 12:-0.7081821 13:0.15329291 14:-0.60027009 15:-0.65964932 16:-1.5744482 17:-0.0048316474 18:-1.3550581 19:0.0045204519 20:0.90125395 21:1.7362256 22:-0.50616085 23:-0.064364617 24:1.5225382 25:0.27734583 26:-0.44120031 27:-0.031126511 28:0.87735221 29:0.095876467 30:0.55733061 31:-0.048600149 32:0.74840345 33:-0.35238457 34:0.12779598 35:-0.57886676 36:0.17062806 37:1.0761406 38:-0.71015494 39:-0.27454148 40:0.35304475 41:-0.75871749 42:-0.92578909 43:0.29706054 44:0.49120724 45:0.60526212 46:0.56730958 47:0.68502553 48:0.45002314 49:0.15687074 50:-0.156444 51:8.1845277 52:0.52330372 53:-4.3878594 54:0.2563728 55:2.7491724 56:0.74014704 57:-0.51514469 58:1.4093923 59:-0.57847438 60:0.8326841 61:-0.39391101 62:-0.74388485 63:0.25263327 64:-0.607743 65:-0.65787972 66:-1.6590853 67:-0.04745638 68:-1.3711852 69:0.14232414 70:0.74482349 71:1.7055186 72:-0.52125088 73:-0.30709854 74:1.588882 75:0.26038379 76:-0.41460974 77:-0.18006436 78:0.86578371 79:0.069124112 80:0.59258413 81:-0.043467975 82:0.73941602 83:-0.30854528 84:0.13209886 85:-0.59397172 86:0.16576062 87:1.0334926 88:-0.6669224 89:-0.28909472 90:0.38359907 91:-0.70806471 92:-0.89453927 93:0.34347571 94:0.49030867 95:0.61959193 96:0.57383505 97:0.67722293 98:0.41676242 99:0.19941176 100:-0.14325182 101:8.1845714 102:0.52337776 103:-4.3877349 104:0.25664259 105:2.7489873 106:0.74037009 107:-0.51565571 108:1.4101794 109:-0.57862732 110:0.8325481 111:-0.39351996 112:-0.74444469 113:0.25282968 114:-0.60840711 115:-0.65803746 116:-1.6596238 117:-0.047425352 118:-1.371698 119:0.14292443 120:0.74458926 121:1.7057961 122:-0.52196921 123:-0.30796834 124:1.5891467 125:0.25998789 126:-0.41401925 127:-0.18063817 128:0.86590335 129:0.068137072 130:0.59281204 131:-0.044610666 132:0.73837491 133:-0.30917835 134:0.13223928 135:-0.59359666 136:0.16467546 137:1.0337784 138:-0.66533227 139:-0.28806494 140:0.38517393 141:-0.70669094 142:-0.89303751 143:0.34275249 144:0.48927041 145:0.61997036 146:0.57643403 147:0.67812331 148:0.4171454 149:0.1991605 150:-0.1424099 151:8.1936968 152:0.53322483 153:-4.3784642 154:0.2842788 155:2.7506083 156:0.76523687 157:-0.54736523 158:1.4067709 159:-0.61501835 160:0.81768912 161:-0.3912492 162:-0.63338795 163:0.00093603143 164:-0.53835353 165:-0.6789284 166:-1.4016122 167:0.043373533 168:-1.2807384 169:-0.206195 170:1.1814618 171:1.7464179 172:-0.53601382 173:0.39360442 174:1.3059799 175:0.31271542 176:-0.4678208 177:0.33020361 178:0.8552059 179:0.085961466 180:0.38773429 181:0.0081799405 182:0.66295092 183:-0.41713519 184:0.12060077 185:-0.50249796 186:0.1480213 187:1.0396081 188:-0.74257542 189:-0.23971116 190:0.2509107 191:-0.84776103 192:-0.967459 193:0.29203562 194:0.53210359 195:0.61527925 196:0.54377327 197:0.68823568 198:0.51425019 199:0.11457405 200:-0.16512672 201:8.1914039 202:0.5505756 203:-4.3560854 204:0.32339116 205:2.7293288 206:0.79598072 207:-0.5733455 208:1.3901928 209:-0.67999849 210:0.79844835 211:-0.48709855 212:-0.48455057 213:-0.28321065 214:-0.12591391 215:-0.78256917 216:-0.88233457 217:-0.0046585835 218:-0.83670524 219:-0.44605294 220:1.662922 221:1.5862591 222:-0.76059611 223:1.2507377 224:0.40965027 225:0.41523803 226:-0.38009992 227:1.2693649 228:0.61009864 229:-0.14055855 230:-0.31713835 231:0.44084497 232:0.020068912 233:-0.54402511 234:0.15076486 235:-0.33245007 236:0.10430242 237:0.4247556 238:-0.49856996 239:0.0029587982 240:-0.0039142868 241:-1.0092908 242:-0.83092608 243:0.76186088 244:0.80616459 245:0.72540479 246:0.35300046 247:0.64196555 248:0.43360724 249:0.41161051 250:-0.24085546 
1.2880495567739308e-06 1:8.1189651 2:0.54728141 3:-4.3587183 4:0.2097447 5:2.6787157 6:0.78403645 7:-0.37336681 8:1.2314574 9:-0.38893793 10:0.75569494 11:-0.0004354483 12:-0.91380063 13:1.8126454 14:1.9603445 15:-0.94715792 16:-0.25623107 17:-0.89375369 18:0.49611254 19:1.2411837 20:0.47097483 21:1.2042279 22:-0.81086757 23:0.27907393 24:0.084689403 25:0.55795542 26:-0.38291478 27:0.72755947 28:0.73509688 29:-0.22897055 30:-0.013371322 31:0.14770227 32:0.34628443 33:-0.30356708 34:0.27334447 35:-0.6774795 36:-0.0095009005 37:1.0159926 38:-0.50451099 39:-0.099577066 40:0.26885078 41:-0.69428835 42:-0.79811293 43:0.51681996 44:0.54140186 45:0.67645579 46:0.51448768 47:0.61477748 48:0.31697117 49:0.41740318 50:-0.11997769 51:8.1524679 52:0.54113752 53:-4.3775712 54:0.23881738 55:2.7119415 56:0.71605205 57:-0.40785992 58:1.3895441 59:-0.46475851 60:0.71860835 61:-0.20617386 62:-1.1638277 63:1.7087673 64:0.4649464 65:-0.86300814 66:-1.4592976 67:-0.74255483 68:-0.20267896 69:1.7602811 70:-0.18464527 71:0.91551896 72:-1.137894 73:-0.70058918 74:-0.027221628 75:0.18353118 76:0.060389864 77:0.6718693 78:0.41814918 79:-0.52778011 80:-0.59838102 81:0.59679292 82:-0.33071091 83:-0.43306126 84:0.38062551 85:-0.2993279 86:0.16712076 87:0.19041486 88:-0.16412595 89:0.040709218 90:0.12778599 91:-0.77848011 92:-0.79231949 93:0.73718711 94:0.77188824 95:0.66169323 96:0.33883641 97:0.61269878 98:0.44383974 99:0.36387311 100:-0.16234804 101:8.1493979 102:0.54281889 103:-4.3735196 104:0.23900461 105:2.7096871 106:0.72337937 107:-0.39525322 108:1.3742044 109:-0.45127362 110:0.71617182 111:-0.17719862 112:-1.1534868 113:1.7822019 114:0.64989727 115:-0.89057295 116:-1.3254554 117:-0.79275459 118:-0.064176742 119:1.775559 120:-0.1497481 121:0.91277264 122:-1.1448927 123:-0.55032302 124:-0.12906401 125:0.21594794 126:0.028226222 127:0.77279963 128:0.43335395 129:-0.50485603 130:-0.60047891 131:0.56453452 132:-0.27476067 133:-0.44767034 134:0.37242022 135:-0.30174216 136:0.1645326 137:0.30586717 138:-0.22034544 139:0.042855687 140:0.11902526 141:-0.79453301 142:-0.82257879 143:0.65964805 144:0.74069687 145:0.69073753 146:0.35355308 147:0.61700177 148:0.4713672 149:0.3065447 150:-0.14468323 151:8.1645859 152:0.53789044 153:-4.3912627 154:0.23705298 155:2.7303995 156:0.70398244 157:-0.45254818 158:1.4518765 159:-0.52131092 160:0.74890835 161:-0.33598244 162:-1.1010402 163:1.2105185 164:-0.26686666 165:-0.74916212 166:-1.8976406 167:-0.46669715 168:-0.89547782 169:1.3411212 170:-0.1611981 171:1.1245102 172:-0.96190202 173:-1.1754276 174:0.77550156 175:0.10030512 176:0.053532982 177:-0.0052953937 178:0.45949479 179:-0.44967798 180:-0.16106802 181:0.52242798 182:-0.24385573 183:-0.27548619 184:0.24188138 185:-0.36517083 186:0.25369498 187:-0.093764402 188:0.058711235 189:0.0038081351 190:0.33132484 191:-0.62672152 192:-0.49060639 193:1.0517408 194:0.6286001 195:0.6624286 196:0.44617084 197:0.54198242 198:0.15787372 199:0.69073085 200:-0.13053218 201:8.1708285 202:0.53406877 203:-4.3958718 204:0.24434648 205:2.7360313 206:0.70652807 207:-0.47169649 208:1.4493824 209:-0.53283603 210:0.75749997 211:-0.36491927 212:-1.0293496 213:0.98875137 214:-0.44708688 215:-0.70625536 216:-1.9680951 217:-0.35409923 218:-1.1103036 219:1.0659871 220:-0.021301062 221:1.2617739 222:-0.82766624 223:-1.1569388 224:1.1124941 225:0.11592609 226:-0.032147129 227:-0.22239626 228:0.54059071 229:-0.35893794 230:0.090400686 231:0.39997699 232:-0.037600979 233:-0.2169588 234:0.21631234 235:-0.41458797 236:0.19314496 237:0.051957522 238:0.035205975 239:-0.047377512 240:0.40164806 241:-0.55540615 242:-0.4612197 243:1.0189262 244:0.51864419 245:0.65163205 246:0.47330013 247:0.49376584 248:0.083059207 249:0.78037631 250:-0.067752897 
0.00083666472185778306 1:8.1524679 2:0.54113752 3:-4.3775712 4:0.23881738 5:2.7119415 6:0.71605205 7:-0.40785992 8:1.3895441 9:-0.46475851 10:0.71860835 11:-0.20617386 12:-1.1638277 13:1.7087673 14:0.4649464 15:-0.86300814 16:-1.4592976 17:-0.74255483 18:-0.20267896 19:1.7602811 20:-0.18464527 21:0.91551896 22:-1.137894 23:-0.70058918 24:-0.027221628 25:0.18353118 26:0.060389864 27:0.6718693 28:0.41814918 29:-0.52778011 30:-0.59838102 31:0.59679292 32:-0.33071091 33:-0.43306126 34:0.38062551 35:-0.2993279 36:0.16712076 37:0.19041486 38:-0.16412595 39:0.040709218 40:0.12778599 41:-0.77848011 42:-0.79231949 43:0.73718711 44:0.77188824 45:0.66169323 46:0.33883641 47:0.61269878 48:0.44383974 49:0.36387311 50:-0.16234804 51:8.1493979 52:0.54281889 53:-4.3735196 54:0.23900461 55:2.7096871 56:0.72337937 57:-0.39525322 58:1.3742044 59:-0.45127362 60:0.71617182 61:-0.17719862 62:-1.1534868 63:1.7822019 64:0.64989727 65:-0.89057295 66:-1.3254554 67:-0.79275459 68:-0.064176742 69:1.775559 70:-0.1497481 71:0.91277264 72:-1.1448927 73:-0.55032302 74:-0.12906401 75:0.21594794 76:0.028226222 77:0.77279963 78:0.43335395 79:-0.50485603 80:-0.60047891 81:0.56453452 82:-0.27476067 83:-0.44767034 84:0.37242022 85:-0.30174216 86:0.1645326 87:0.30586717 88:-0.22034544 89:0.042855687 90:0.11902526 91:-0.79453301 92:-0.82257879 93:0.65964805 94:0.74069687 95:0.69073753 96:0.35355308 97:0.61700177 98:0.4713672 99:0.3065447 100:-0.14468323 101:8.1708285 102:0.53406877 103:-4.3958718 104:0.24434648 105:2.7360313 106:0.70652807 107:-0.47169649 108:1.4493824 109:-0.53283603 110:0.75749997 111:-0.36491927 112:-1.0293496 113:0.98875137 114:-0.44708688 115:-0.70625536 116:-1.9680951 117:-0.35409923 118:-1.1103036 119:1.0659871 120:-0.021301062 121:1.2617739 122:-0.82766624 123:-1.1569388 124:1.1124941 125:0.11592609 126:-0.032147129 127:-0.22239626 128:0.54059071 129:-0.35893794 130:0.090400686 131:0.39997699 132:-0.037600979 133:-0.2169588 134:0.21631234 135:-0.41458797 136:0.19314496 137:0.051957522 138:0.035205975 139:-0.047377512 140:0.40164806 141:-0.55540615 142:-0.4612197 143:1.0189262 144:0.51864419 145:0.65163205 146:0.47330013 147:0.49376584 148:0.083059207 149:0.78037631 150:-0.067752897 151:8.1544076 152:0.53998741 153:-4.3815704 154:0.23674228 155:2.7137906 156:0.71178511 157:-0.41661175 158:1.4084134 159:-0.47770396 160:0.72070602 161:-0.23899995 162:-1.1610276 163:1.6137551 164:0.29473594 165:-0.84112674 166:-1.568577 167:-0.69207343 168:-0.34727003 169:1.7021145 170:-0.20634292 171:0.94343907 172:-1.1209223 173:-0.82846557 174:0.1099758 175:0.15676116 176:0.075634103 177:0.54573734 178:0.40779417 179:-0.52481226 180:-0.54800412 181:0.60589127 182:-0.35342239 183:-0.40820224 184:0.35416329 185:-0.3016285 186:0.18786577 187:0.095222044 188:-0.10310716 189:0.043742091 190:0.16307958 191:-0.75627957 192:-0.72864777 193:0.81489116 194:0.78138253 195:0.67692924 196:0.35004096 197:0.61188984 198:0.40542722 199:0.42123817 200:-0.17210023 201:8.1189679 202:0.54711964 203:-4.3586616 204:0.20973527 205:2.6785978 206:0.78392871 207:-0.37305021 208:1.2315425 209:-0.38892305 210:0.75602079 211:-0.00089502418 212:-0.91365764 213:1.8126236 214:1.9606656 215:-0.94710808 216:-0.25635188 217:-0.89399056 218:0.4956979 219:1.2412818 220:0.47122641 221:1.2039035 222:-0.81110431 223:0.27985295 224:0.084658949 225:0.55779837 226:-0.38274067 227:0.72787127 228:0.73512842 229:-0.22901423 230:-0.013737761 231:0.14682283 232:0.34611559 233:-0.3039003 234:0.27302047 235:-0.677084 236:-0.0092406763 237:1.016943 238:-0.50468334 239:-0.099991007 240:0.26873224 241:-0.6951657 242:-0.79940803 243:0.51741372 244:0.54111159 245:0.67585653 246:0.51509427 247:0.61287572 248:0.31699697 249:0.41635927 250:-0.12034303 
0.0067934646572600892 1:7.9343009 2:0.43237662 3:-4.1652434 4:-0.062445479 5:2.4002707 6:0.49883614 7:-0.68829928 8:0.7952906 9:-0.62980509 10:1.0986817 11:-0.48014803 12:1.064323 13:-1.2865599 14:1.7697981 15:1.1887589 16:-0.21429075 17:-0.36357992 18:-1.3591654 19:0.74468991 20:-0.20261093 21:0.54540309 22:-0.4868409 23:-1.1958759 24:0.20975465 25:0.24163643 26:0.065330615 27:1.2130472 28:0.13914072 29:0.4370536 30:-0.23378181 31:1.8530408 32:0.19790926 33:0.059332362 34:0.064013254 35:-0.26888673 36:-0.11845254 37:0.77488289 38:-0.038458102 39:-0.30736128 40:0.33537143 41:-0.92090652 42:-0.5480646 43:0.094159699 44:-0.29049876 45:0.55495653 46:0.67460098 47:0.34376858 48:0.13388503 49:0.19647393 50:-0.60343491 51:7.9632559 52:0.47443879 53:-4.1714919 54:-0.041430073 55:2.4228993 56:0.59242625 57:-0.70221536 58:0.77695556 59:-0.43088994 60:0.95059972 61:0.56278464 62:0.36987904 63:1.1812362 64:2.2614205 65:0.44377981 66:0.75010012 67:-1.1436857 68:0.051467773 69:0.11541559 70:0.34906499 71:0.81454907 72:0.10469387 73:-0.15871547 74:1.0287195 75:0.90595067 76:-0.65424425 77:0.59349695 78:0.42423662 79:0.6898707 80:0.57043182 81:1.7022027 82:0.61336076 83:0.39327973 84:0.14193267 85:-0.41317348 86:-0.58931981 87:0.38332361 88:0.34902484 89:-0.31875732 90:0.63509075 91:-0.5181283 92:-0.34334758 93:0.49627052 94:-0.35905723 95:0.54316515 96:0.65396533 97:0.19616056 98:-0.05122311 99:0.57270802 100:-0.55698985 101:8.0076312 102:0.47016075 103:-4.1631096 104:-0.007439281 105:2.478093 106:0.52032116 107:-0.69259585 108:0.99042502 109:-0.4625791 110:0.87173316 111:0.58930604 112:-0.12796721 113:1.9143022 114:0.92514529 115:0.26930287 116:-0.18072927 117:-1.3983607 118:0.3386124 119:1.3555528 120:-0.50447471 121:0.33264225 122:-0.53736948 123:-0.093650037 124:-0.23614689 125:0.63998883 126:-0.44327311 127:1.469254 128:0.21319835 129:0.57893698 130:-0.10342939 131:1.7643863 132:0.47273642 133:0.032540849 134:0.22836006 135:-0.16131296 136:-0.34757855 137:0.76340347 138:0.013275475 139:-0.24438008 140:0.39315816 141:-0.74683707 142:-0.57559319 143:-0.010686619 144:-0.31479958 145:0.59852195 146:0.6420428 147:0.4067965 148:0.26103114 149:0.073064367 150:-0.60223215 151:8.0170406 152:0.46813023 153:-4.1691023 154:0.0036844771 155:2.4876899 156:0.5049432 157:-0.70004109 158:1.033147 159:-0.48412772 160:0.86165242 161:0.53107591 162:-0.19154228 163:1.8791028 164:0.5379805 165:0.28949787 166:-0.50828775 167:-1.3609114 168:0.15510756 169:1.4926287 170:-0.67928274 171:0.25319127 172:-0.63124265 173:-0.36684536 174:-0.27126071 175:0.53132994 176:-0.31146875 177:1.4535184 178:0.11715781 179:0.49087361 180:-0.27630975 181:1.9089116 182:0.277778 183:0.0050052849 184:0.26645862 185:-0.027592628 186:-0.30710109 187:0.50607638 188:0.12925212 189:-0.19989765 190:0.38365509 191:-0.75169854 192:-0.58670736 193:0.061707646 194:-0.26742697 195:0.61454663 196:0.58489634 197:0.39168094 198:0.29132961 199:0.093379527 200:-0.59909896 201:8.0170798 202:0.46826946 203:-4.1691445 204:0.0036978244 205:2.4877808 206:0.50500585 207:-0.70004934 208:1.0329951 209:-0.48435889 210:0.86083203 211:0.53118888 212:-0.19179793 213:1.8785931 214:0.53788616 215:0.28967873 216:-0.50863916 217:-1.3608534 218:0.15518759 219:1.4921851 220:-0.67858517 221:0.25279156 222:-0.63137956 223:-0.36658914 224:-0.27146513 225:0.53151336 226:-0.31029663 227:1.4526622 228:0.11720137 229:0.48985285 230:-0.27611868 231:1.9079941 232:0.27731642 233:0.0052879422 234:0.26677722 235:-0.027346603 236:-0.3062751 237:0.5051666 238:0.12956277 239:-0.19938923 240:0.38325117 241:-0.75032403 242:-0.58625706 243:0.062126253 244:-0.26674257 245:0.6138924 246:0.58328939 247:0.39078622 248:0.28950049 249:0.092595529 250:-0.59793173 
0.01 1:7.6865084 2:0.085166202 3:-3.7501209 4:-0.75966334 5:2.4514056 6:0.68210842 7:-1.5622761 8:1.664821 9:-1.4005227 10:1.4384016 11:-0.057001307 12:0.11195626 13:0.42461619 14:-1.2029475 15:0.5251779 16:-1.0457838 17:-0.89730057 18:-1.7582647 19:-0.1011253 20:-0.37473629 21:0.58807248 22:0.58861281 23:-0.3772699 24:1.5203125 25:0.57151109 26:-0.61071437 27:0.19672718 28:0.40949062 29:0.8458359 30:0.66816294 31:0.85089411 32:0.87631491 33:0.11569412 34:-0.094572162 35:-0.38997958 36:-0.72141477 37:0.73984941 38:0.22707143 39:-0.41500862 40:0.25697275 41:-0.32214982 42:0.28698223 43:-0.31089717 44:-0.49659199 45:0.18427894 46:0.36742891 47:0.30174767 48:0.18082989 49:-0.12164714 50:-0.31522099 51:7.6784947 52:0.079816664 53:-3.7951362 54:-0.70657419 55:2.494448 56:0.6487176 57:-1.7119723 58:1.4405363 59:-1.1761264 60:1.5472145 61:0.15317414 62:0.99064457 63:0.65385961 64:-1.5501809 65:0.65996631 66:-0.83643482 67:-1.4704791 68:-2.066844 69:0.31816235 70:-0.38336305 71:0.95328977 72:0.72507486 73:-0.20937431 74:1.5951677 75:0.6834023 76:-0.4558298 77:0.20934221 78:0.30996368 79:0.82749992 80:0.82509918 81:-0.21102137 82:-0.051651307 83:0.3396503 84:-0.57464631 85:-1.0629616 86:-0.46222914 87:0.71491889 88:-0.36346997 89:-0.038058845 90:-0.23406533 91:-0.18346703 92:0.14552545 93:0.017981799 94:0.067277269 95:0.3703578 96:0.41991928 97:0.17885389 98:0.4057703 99:-0.095156675 100:-0.19743889 101:7.6863476 102:0.084796033 103:-3.787888 104:-0.68868549 105:2.4970132 106:0.67214057 107:-1.735489 108:1.4271928 109:-1.2073756 110:1.5491132 111:0.15782397 112:1.1015978 113:0.37631295 114:-1.4960643 115:0.64607933 116:-0.58426271 117:-1.364455 118:-2.0025669 119:-0.052344288 120:0.039699421 121:1.0353121 122:0.7569443 123:0.44883767 124:1.4062418 125:0.74110914 126:-0.53733425 127:0.61757067 128:0.33945577 129:0.90286117 130:0.73056197 131:-0.23042329 132:0.00012282735 133:0.22913467 134:-0.59909835 135:-1.011968 136:-0.45074839 137:0.87323633 138:-0.53464451 139:-0.029752715 140:-0.34005435 141:-0.33902128 142:-0.00029464827 143:-0.14697181 144:0.09031139 145:0.34448501 146:0.39789082 147:0.21414436 148:0.5548722 149:-0.28234987 150:-0.23490638 151:7.6656294 152:0.10267366 153:-3.7541121 154:-0.64357332 155:2.448817 156:0.70298618 157:-1.7228409 158:1.3677268 159:-1.2739624 160:1.5480501 161:-0.10426608 162:1.323421 163:0.050833102 164:-0.63783672 165:0.4795807 166:0.20016095 167:-1.6073674 168:-1.1402228 169:-0.083143376 170:0.44978572 171:0.67195053 172:0.37731594 173:1.1327911 174:0.027777665 175:0.89889137 176:-0.3064703 177:1.6038472 178:-0.13353454 179:0.42862281 180:-0.24917324 181:0.47837304 182:-1.0833417 183:0.19420596 184:-0.509406 185:-0.91159621 186:-0.51396753 187:-0.19546042 188:0.087973729 189:0.35358779 190:-0.59433382 191:-0.37456953 192:0.44448272 193:0.77600745 194:0.33636663 195:0.468775 196:0.15263622 197:0.032060174 198:0.17738538 199:0.46789604 200:-0.22049226 201:7.665605 202:0.10267827 203:-3.754005 204:-0.64360839 205:2.4487246 206:0.70302227 207:-1.7228387 208:1.3677689 209:-1.2738459 210:1.5477978 211:-0.10414499 212:1.3228731 213:0.051137539 214:-0.63779903 215:0.47956196 216:0.20037261 217:-1.606807 218:-1.1401783 219:-0.083196775 220:0.44949073 221:0.67139061 222:0.37646037 223:1.1322957 224:0.027471452 225:0.89872395 226:-0.30645031 227:1.6036194 228:-0.13357253 229:0.42840157 230:-0.24934929 231:0.47804531 232:-1.0827557 233:0.19415202 234:-0.50953012 235:-0.91084031 236:-0.51375145 237:-0.19538982 238:0.087943466 239:0.35324615 240:-0.59345752 241:-0.37470312 242:0.44464861 243:0.77544949 244:0.33677973 245:0.46888659 246:0.15194878 247:0.032277948 248:0.17792172 249:0.4683347 250:-0.21914478 
0.00072002054229640443 1:7.6656945 2:0.10263632 3:-3.7541711 4:-0.64340764 5:2.4485111 6:0.70275094 7:-1.7230778 8:1.3678511 9:-1.2749299 10:1.5484402 11:-0.10429722 12:1.3233359 13:0.051349167 14:-0.63772035 15:0.48021379 16:0.20062439 17:-1.6073552 18:-1.1399735 19:-0.082557127 20:0.44934602 21:0.67237767 22:0.37768105 23:1.1320584 24:0.027304972 25:0.89804465 26:-0.30672146 27:1.6028906 28:-0.13310826 29:0.42887747 30:-0.24943375 31:0.47790928 32:-1.0831834 33:0.19353786 34:-0.51005912 35:-0.91078542 36:-0.51323376 37:-0.19631564 38:0.08689849 39:0.35240391 40:-0.59543967 41:-0.37422608 42:0.44422801 43:0.77553535 44:0.33677834 45:0.46915977 46:0.15379737 47:0.032927474 48:0.17739193 49:0.46869327 50:-0.22106899 51:7.6522137 52:0.094299963 53:-3.7913156 54:-0.72638355 55:2.4636608 56:0.62246686 57:-1.6251091 58:1.4457084 59:-1.0958245 60:1.4522693 61:0.27659977 62:0.6182153 63:1.8179688 64:-0.79433216 65:0.49799616 66:-0.76602608 67:-2.0220406 68:-1.1729403 69:1.691904 70:-1.2248733 71:0.27046162 72:0.17830922 73:-0.66994055 74:0.23978618 75:0.58013265 76:0.0062551117 77:0.88824438 78:-0.12283853 79:0.29034398 80:-0.23522184 81:0.40779241 82:-1.0812989 83:0.23912191 84:-0.39036873 85:-0.78867701 86:-0.40346885 87:-0.17838395 88:0.15066606 89:0.27078971 90:-0.44768831 91:-0.26417735 92:0.28099524 93:0.45043374 94:0.36275482 95:0.41609176 96:0.21414889 97:0.13335392 98:0.41609846 99:0.055594943 100:-0.24942945 101:7.6770995 102:0.080616281 103:-3.7957163 104:-0.70617311 105:2.4913129 106:0.642653 107:-1.7074925 108:1.4480182 109:-1.1684003 110:1.5333567 111:0.15561213 112:0.94925357 113:0.7496941 114:-1.5507585 115:0.6580267 116:-0.90501503 117:-1.5055576 118:-2.0571739 119:0.43968724 120:-0.49911923 121:0.89725258 122:0.68802635 123:-0.37132895 124:1.5764665 125:0.65450939 126:-0.40133758 127:0.14811931 128:0.26873773 129:0.7595602 130:0.78206932 131:-0.15897011 132:-0.14873957 133:0.36672523 134:-0.55974997 135:-1.0298835 136:-0.46897437 137:0.55637911 138:-0.2418313 139:-0.0095590003 140:-0.20130514 141:-0.12381056 142:0.22979657 143:0.12834439 144:0.049029333 145:0.36972474 146:0.41022408 147:0.13360379 148:0.32257097 149:0.036614035 150:-0.16404474 151:7.6786372 152:0.079779797 153:-3.7950716 154:-0.70627894 155:2.4938949 156:0.64892269 157:-1.7120586 158:1.4400343 159:-1.1763186 160:1.5477128 161:0.15405269 162:0.99024474 163:0.65360837 164:-1.5499399 165:0.66020702 166:-0.83664415 167:-1.4712139 168:-2.0668296 169:0.31744298 170:-0.38362075 171:0.95376348 172:0.72480427 173:-0.20894969 174:1.5960552 175:0.68284937 176:-0.45633728 177:0.21019332 178:0.3097552 179:0.82630348 180:0.8267756 181:-0.21043669 182:-0.053293499 183:0.34033621 184:-0.57458329 185:-1.0642716 186:-0.46218939 187:0.71521714 188:-0.36446559 189:-0.038622531 190:-0.234174 191:-0.18361018 192:0.14329962 193:0.015993159 194:0.068472602 195:0.36841029 196:0.4201481 197:0.17635752 198:0.40544281 199:-0.09770054 200:-0.1977147 201:7.6786037 202:0.079755063 203:-3.7950284 204:-0.70637136 205:2.4940306 206:0.64907962 207:-1.7120159 208:1.44 209:-1.1760556 210:1.5473155 211:0.15410915 212:0.98998855 213:0.65340706 214:-1.5493056 215:0.66027181 216:-0.83639957 217:-1.4701866 218:-2.0656779 219:0.31693846 220:-0.38333975 221:0.95288779 222:0.72429381 223:-0.20921638 224:1.5950651 225:0.68201189 226:-0.45619343 227:0.20907484 228:0.30972452 229:0.82497057 230:0.82582254 231:-0.2108292 232:-0.052798626 233:0.33902347 234:-0.57370442 235:-1.0625919 236:-0.46178196 237:0.71419198 238:-0.36352943 239:-0.039367678 240:-0.23416705 241:-0.1827333 242:0.14357355 243:0.016418248 244:0.068588045 245:0.36830596 246:0.4196662 247:0.17635797 248:0.40373247 249:-0.098009043 250:-0.19699738 
0.0014591079030844369 1:7.6704976 2:0.084802209 3:-3.8005216 4:-0.71188237 5:2.4832792 6:0.6247028 7:-1.6891462 8:1.4653968 9:-1.1437514 10:1.4945462 11:0.16590301 12:0.82367316 13:1.0605259 14:-1.5075262 15:0.64509835 16:-1.0664578 17:-1.6298622 18:-1.9588105 19:0.83000821 20:-0.8379072 21:0.70494866 22:0.56821006 23:-0.76603717 24:1.3807109 25:0.58434307 26:-0.21886788 27:0.10262258 28:0.1202263 29:0.54217695 30:0.56323678 31:0.049884753 32:-0.50217788 33:0.41847125 34:-0.50302704 35:-0.92876653 36:-0.46429268 37:0.081436262 38:0.12710541 39:0.12029516 40:-0.17822322 41:-0.035756819 42:0.44507659 43:0.45804775 44:0.04839099 45:0.3724687 46:0.34265421 47:0.014082932 48:0.12689134 49:0.36536053 50:-0.10375857 51:7.6681748 52:0.087169439 53:-3.802351 54:-0.71433179 55:2.484197 56:0.62181325 57:-1.6792595 58:1.4676823 59:-1.1395549 60:1.488414 61:0.17400728 62:0.78272504 63:1.1783129 64:-1.4440565 65:0.62983843 66:-1.0722595 67:-1.682103 68:-1.8770089 69:0.97810068 70:-0.93492533 71:0.62856178 72:0.50923853 73:-0.83115148 74:1.2413345 75:0.57188739 76:-0.1605199 77:0.16809257 78:0.063524164 79:0.49460212 80:0.4519853 81:0.12501702 82:-0.63196863 83:0.41237979 84:-0.50691669 85:-0.90545342 86:-0.44469123 87:-0.039355483 88:0.1893324 89:0.15740446 90:-0.20526713 91:-0.05750027 92:0.4780969 93:0.52286737 94:0.070374586 95:0.37331873 96:0.32547392 97:0.015708259 98:0.13103607 99:0.37209692 100:-0.12094855 101:7.6682369 102:0.08702915 103:-3.8022303 104:-0.71420665 105:2.4837155 106:0.62209724 107:-1.6792408 108:1.4671489 109:-1.1395259 110:1.4885045 111:0.17451611 112:0.78195908 113:1.1776391 114:-1.4433422 115:0.62977005 116:-1.0724267 117:-1.6822095 118:-1.8757655 119:0.97714743 120:-0.93479993 121:0.62846724 122:0.50890013 123:-0.83070713 124:1.240896 125:0.57043016 126:-0.16025285 127:0.16761886 128:0.062995381 129:0.49267527 130:0.45303628 131:0.12603136 132:-0.63268697 133:0.41091826 134:-0.50639253 135:-0.9043669 136:-0.44412561 137:-0.040529628 138:0.18960116 139:0.15574732 140:-0.20440716 141:-0.057274768 142:0.47647752 143:0.52210325 144:0.071081385 145:0.37146451 146:0.32546053 147:0.013784153 148:0.12958324 149:0.37152302 150:-0.12031568 151:7.5685904 152:-0.30299864 153:-3.8493015 154:-1.0944058 155:2.2872227 156:0.61637855 157:-1.5719729 158:1.5465418 159:-2.0113053 160:0.75939265 161:-1.1048173 162:-2.1275319 163:0.8959535 164:-0.28501166 165:-0.41290091 166:-2.2219378 167:0.34043165 168:-1.1360782 169:-0.13664411 170:-1.3176182 171:0.026940618 172:1.1025729 173:-0.72335489 174:0.80063038 175:0.35481501 176:-0.13304145 177:-0.061636809 178:-0.21540307 179:0.3324225 180:0.37601531 181:0.33438773 182:-0.24770947 183:0.51397948 184:-0.81795602 185:-0.65606697 186:-0.6232856 187:-0.20378406 188:0.087020128 189:-0.30786119 190:-0.086155966 191:-0.095792364 192:0.65759463 193:0.49510634 194:-0.22424692 195:0.13980907 196:0.14114744 197:-0.072946936 198:-0.15897266 199:0.20867 200:0.050137763 201:7.5685 202:-0.30286981 203:-3.8492361 204:-1.0946252 205:2.2874852 206:0.61619509 207:-1.5718815 208:1.5464263 209:-2.0108489 210:0.75955896 211:-1.1050169 212:-2.1276626 213:0.89653617 214:-0.28525175 215:-0.41251647 216:-2.221623 217:0.34055771 218:-1.1367181 219:-0.13663386 220:-1.3174017 221:0.027141606 222:1.1038747 223:-0.72325602 224:0.80168271 225:0.35442479 226:-0.13221426 227:-0.06286104 228:-0.2153519 229:0.33322832 230:0.37650904 231:0.3342835 232:-0.24896035 233:0.51555949 234:-0.81832045 235:-0.65589119 236:-0.62328583 237:-0.20461267 238:0.086772677 239:-0.30764649 240:-0.085661089 241:-0.095046267 242:0.6587321 243:0.49670915 244:-0.22211375 245:0.13916603 246:0.13900025 247:-0.072390882 248:-0.15966673 249:0.20847429 250:0.04900525 
0.00060575049219938298 1:7.6681748 2:0.087169439 3:-3.802351 4:-0.71433179 5:2.484197 6:0.62181325 7:-1.6792595 8:1.4676823 9:-1.1395549 10:1.488414 11:0.17400728 12:0.78272504 13:1.1783129 14:-1.4440565 15:0.62983843 16:-1.0722595 17:-1.682103 18:-1.8770089 19:0.97810068 20:-0.93492533 21:0.62856178 22:0.50923853 23:-0.83115148 24:1.2413345 25:0.57188739 26:-0.1605199 27:0.16809257 28:0.063524164 29:0.49460212 30:0.4519853 31:0.12501702 32:-0.63196863 33:0.41237979 34:-0.50691669 35:-0.90545342 36:-0.44469123 37:-0.039355483 38:0.1893324 39:0.15740446 40:-0.20526713 41:-0.05750027 42:0.4780969 43:0.52286737 44:0.070374586 45:0.37331873 46:0.32547392 47:0.015708259 48:0.13103607 49:0.37209692 50:-0.12094855 51:7.6682369 52:0.08702915 53:-3.8022303 54:-0.71420665 55:2.4837155 56:0.62209724 57:-1.6792408 58:1.4671489 59:-1.1395259 60:1.4885045 61:0.17451611 62:0.78195908 63:1.1776391 64:-1.4433422 65:0.62977005 66:-1.0724267 67:-1.6822095 68:-1.8757655 69:0.97714743 70:-0.93479993 71:0.62846724 72:0.50890013 73:-0.83070713 74:1.240896 75:0.57043016 76:-0.16025285 77:0.16761886 78:0.062995381 79:0.49267527 80:0.45303628 81:0.12603136 82:-0.63268697 83:0.41091826 84:-0.50639253 85:-0.9043669 86:-0.44412561 87:-0.040529628 88:0.18960116 89:0.15574732 90:-0.20440716 91:-0.057274768 92:0.47647752 93:0.52210325 94:0.071081385 95:0.37146451 96:0.32546053 97:0.013784153 98:0.12958324 99:0.37152302 100:-0.12031568 101:7.5685904 102:-0.30299864 103:-3.8493015 104:-1.0944058 105:2.2872227 106:0.61637855 107:-1.5719729 108:1.5465418 109:-2.0113053 110:0.75939265 111:-1.1048173 112:-2.1275319 113:0.8959535 114:-0.28501166 115:-0.41290091 116:-2.2219378 117:0.34043165 118:-1.1360782 119:-0.13664411 120:-1.3176182 121:0.026940618 122:1.1025729 123:-0.72335489 124:0.80063038 125:0.35481501 126:-0.13304145 127:-0.061636809 128:-0.21540307 129:0.3324225 130:0.37601531 131:0.33438773 132:-0.24770947 133:0.51397948 134:-0.81795602 135:-0.65606697 136:-0.6232856 137:-0.20378406 138:0.087020128 139:-0.30786119 140:-0.086155966 141:-0.095792364 142:0.65759463 143:0.49510634 144:-0.22424692 145:0.13980907 146:0.14114744 147:-0.072946936 148:-0.15897266 149:0.20867 150:0.050137763 151:7.5685 152:-0.30286981 153:-3.8492361 154:-1.0946252 155:2.2874852 156:0.61619509 157:-1.5718815 158:1.5464263 159:-2.0108489 160:0.75955896 161:-1.1050169 162:-2.1276626 163:0.89653617 164:-0.28525175 165:-0.41251647 166:-2.221623 167:0.34055771 168:-1.1367181 169:-0.13663386 170:-1.3174017 171:0.027141606 172:1.1038747 173:-0.72325602 174:0.80168271 175:0.35442479 176:-0.13221426 177:-0.06286104 178:-0.2153519 179:0.33322832 180:0.37650904 181:0.3342835 182:-0.24896035 183:0.51555949 184:-0.81832045 185:-0.65589119 186:-0.62328583 187:-0.20461267 188:0.086772677 189:-0.30764649 190:-0.085661089 191:-0.095046267 192:0.6587321 193:0.49670915 194:-0.22211375 195:0.13916603 196:0.13900025 197:-0.072390882 198:-0.15966673 199:0.20847429 200:0.04900525 201:7.5630333 202:-0.29920909 203:-3.8467795 204:-1.1013079 205:2.2834355 206:0.61282351 207:-1.5533915 208:1.5496616 209:-2.0047749 210:0.74918652 211:-1.0826287 212:-2.2056752 213:1.1258719 214:-0.12876149 215:-0.45214316 216:-2.1897585 217:0.22747629 218:-0.94455569 219:0.14999641 220:-1.4870317 221:-0.12244989 222:0.97512692 223:-0.79243709 224:0.48882054 225:0.33082721 226:-0.035047543 227:0.12103631 228:-0.31273138 229:0.23929631 230:0.13625783 231:0.47723664 232:-0.47947594 233:0.47823567 234:-0.79834253 235:-0.60837084 236:-0.56530248 237:-0.3958292 238:0.15335632 239:-0.24791191 240:-0.16728893 241:-0.16276583 242:0.65676878 243:0.59079015 244:-0.14074737 245:0.15540018 246:0.10697362 247:-0.049907649 248:-0.11486069 249:0.16305668 250:-0.0068981341 
0.0024026997042099776 1:7.5480736 2:-0.29379077 3:-3.8312366 4:-1.1033803 5:2.2620943 6:0.62400971 7:-1.4996136 8:1.487865 9:-1.9404637 10:0.71416683 11:-0.93696656 12:-2.3042029 13:1.7336024 14:0.69959828 15:-0.58930904 16:-1.7091993 17:-0.10400801 18:-0.1393939 19:0.70264491 20:-1.5738376 21:-0.39561894 22:0.7304517 23:-0.31528949 24:-0.4850868 25:0.41230968 26:0.0081395437 27:0.91546006 28:-0.3912175 29:0.11728294 30:-0.42858944 31:0.60598342 32:-0.66359279 33:0.28598146 34:-0.64794776 35:-0.52043753 36:-0.62503154 37:-0.17155572 38:-0.066899996 39:-0.19054212 40:-0.39699957 41:-0.35309057 42:0.33940545 43:0.27413604 44:0.065073688 45:0.15921048 46:-0.010696331 47:0.050424895 48:0.21794216 49:-0.21627282 50:-0.068775573 51:7.5664815 52:-0.30075832 53:-3.8495315 54:-1.0975363 55:2.2859109 56:0.61434241 57:-1.5632792 58:1.5477068 59:-2.0090292 60:0.75274355 61:-1.0956992 62:-2.170051 63:1.0134239 64:-0.21193252 65:-0.43171132 66:-2.2182976 67:0.28419893 68:-1.0471847 69:0.008849284 70:-1.4111006 71:-0.049181007 72:1.0421548 73:-0.77254731 74:0.65292455 75:0.34399378 76:-0.083837373 77:0.021291873 78:-0.26813221 79:0.28607531 80:0.26032897 81:0.40888311 82:-0.37024157 83:0.50226433 84:-0.81251351 85:-0.63641224 86:-0.59719575 87:-0.3100095 88:0.1317138 89:-0.2774368 90:-0.12433558 91:-0.1283281 92:0.66955146 93:0.55537505 94:-0.18880642 95:0.14762166 96:0.12383024 97:-0.068917622 98:-0.14538594 99:0.20000403 100:0.023500663 101:7.5664613 102:-0.30084042 103:-3.849584 104:-1.0974207 105:2.2858617 106:0.6141578 107:-1.5638326 108:1.5474587 109:-2.0092887 110:0.75311459 111:-1.0956907 112:-2.1701083 113:1.0139189 114:-0.211792 115:-0.43125472 116:-2.2177893 117:0.28345714 118:-1.0468351 119:0.0087293521 120:-1.4116091 121:-0.049874188 122:1.0421936 123:-0.77260006 124:0.65289123 125:0.34382996 126:-0.083355144 127:0.021186819 128:-0.2682118 129:0.28438169 130:0.26030466 131:0.4094267 132:-0.37109274 133:0.50063482 134:-0.81295604 135:-0.63515928 136:-0.59829349 137:-0.31141356 138:0.13277037 139:-0.27919084 140:-0.12617401 141:-0.12720275 142:0.67033353 143:0.5577497 144:-0.18954546 145:0.14984408 146:0.12466097 147:-0.068103117 148:-0.14520392 149:0.20129592 150:0.023726995 151:7.5664502 152:-0.30077792 153:-3.8495176 154:-1.0976633 155:2.2859608 156:0.61436809 157:-1.5634471 158:1.5476337 159:-2.0089779 160:0.75273163 161:-1.0957645 162:-2.169607 163:1.0136417 164:-0.21195616 165:-0.43205401 166:-2.2176309 167:0.28370791 168:-1.0470249 169:0.0090947393 170:-1.4111274 171:-0.049675846 172:1.0417719 173:-0.77216016 174:0.65239559 175:0.34367368 176:-0.083802718 177:0.021514429 178:-0.26844187 179:0.28549319 180:0.25997585 181:0.40909684 182:-0.37109104 183:0.50156718 184:-0.81281517 185:-0.63611037 186:-0.59789923 187:-0.3108393 188:0.13203901 189:-0.27917737 190:-0.12475854 191:-0.1281151 192:0.66995975 193:0.55711606 194:-0.18902828 195:0.14910775 196:0.12411047 197:-0.068216406 198:-0.14532867 199:0.20031986 200:0.024002877 201:7.5664074 202:-0.30077203 203:-3.8495389 204:-1.0975304 205:2.2862882 206:0.61444382 207:-1.5634547 208:1.5475325 209:-2.0092221 210:0.75249524 211:-1.0960217 212:-2.1699419 213:1.0141468 214:-0.21229921 215:-0.43164517 216:-2.2180691 217:0.28422715 218:-1.0470109 219:0.0088870209 220:-1.4113989 221:-0.049155144 222:1.0418576 223:-0.77243436 224:0.65280832 225:0.34406669 226:-0.084379517 227:0.02142865 228:-0.26807615 229:0.28517137 230:0.2603594 231:0.40886737 232:-0.37043099 233:0.50161843 234:-0.81160814 235:-0.63628263 236:-0.59715389 237:-0.31083887 238:0.13186825 239:-0.27974597 240:-0.1240673 241:-0.12847583 242:0.66971954 243:0.55663587 244:-0.18898242 245:0.1479511 246:0.12531442 247:-0.06906061 248:-0.14600024 249:0.20059382 250:0.025226095 
0.00081600258131989296 1:7.4628218 2:-0.34293736 3:-3.7931119 4:-1.1588333 5:2.1926103 6:0.57239874 7:-1.4424031 8:1.2772753 9:-2.0828837 10:0.97330732 11:-2.0586125 12:-0.89804747 13:-1.5961997 14:2.0854586 15:0.18703495 16:-1.3121425 17:0.79942159 18:-0.84643879 19:0.47163834 20:-1.2607958 21:-0.17001235 22:0.6391863 23:-0.11291646 24:-0.61344228 25:0.39724685 26:0.037252296 27:0.96004227 28:-0.11997809 29:0.26989073 30:0.15706398 31:0.11097043 32:-0.011580456 33:0.45119782 34:-0.90964769 35:-0.9679455 36:-0.52669667 37:0.65608796 38:-0.34487109 39:-0.29171245 40:-0.24332859 41:-0.31189125 42:0.54286428 43:0.31805353 44:-0.19088308 45:0.21974797 46:0.12445865 47:-0.10853052 48:-0.17542079 49:0.08643337 50:-0.010335442 51:7.4626366 52:-0.34267901 53:-3.7931253 54:-1.1589834 55:2.1925049 56:0.57249136 57:-1.442658 58:1.2773047 59:-2.08224 60:0.97366251 61:-2.0579645 62:-0.89905282 63:-1.5965036 64:2.0845252 65:0.18753421 66:-1.3127749 67:0.79931347 68:-0.84566037 69:0.47182205 70:-1.2600337 71:-0.16878214 72:0.63773506 73:-0.11366481 74:-0.61311795 75:0.39877673 76:0.03655745 77:0.96020752 78:-0.11896664 79:0.27014016 80:0.15653387 81:0.10817821 82:-0.010272213 83:0.44987836 84:-0.90996845 85:-0.96684623 86:-0.52953624 87:0.6553034 88:-0.34486919 89:-0.29106964 90:-0.24577804 91:-0.31310712 92:0.54126448 93:0.31710205 94:-0.19251795 95:0.21867258 96:0.12808159 97:-0.10981738 98:-0.17938901 99:0.086815433 100:-0.012458031 101:7.459747 102:-0.29450708 103:-3.8422885 104:-1.182025 105:2.1565675 106:0.73529612 107:-1.4853143 108:1.1251455 109:-1.9261006 110:0.87771324 111:-1.2058319 112:-1.3460837 113:0.042198312 114:3.0985595 115:-0.10457662 116:-0.17126852 117:0.42534003 118:-0.78387788 119:-0.9822836 120:-0.30831429 121:0.23143276 122:1.5138743 123:-0.56399913 124:0.86101793 125:0.61603953 126:-0.041562217 127:0.16998492 128:-0.21357517 129:0.21670194 130:-0.00013091048 131:0.61062767 132:-0.7389218 133:0.56143478 134:-0.85370594 135:-0.85514803 136:-0.75457336 137:-0.27447986 138:-0.010672005 139:-0.33067237 140:-0.35381318 141:-0.44994221 142:0.30527351 143:0.43165687 144:0.16176662 145:0.035146904 146:0.13483886 147:0.00066287841 148:0.22636642 149:-0.21642069 150:-0.12045418 151:7.566477 152:-0.3008017 153:-3.8495284 154:-1.0976513 155:2.2860918 156:0.61443103 157:-1.5631512 158:1.5476608 159:-2.0091155 160:0.7528612 161:-1.0958856 162:-2.1699017 163:1.0134967 164:-0.21174281 165:-0.43220259 166:-2.2176099 167:0.28324152 168:-1.0471087 169:0.0090562786 170:-1.4106127 171:-0.049157016 172:1.041506 173:-0.77267683 174:0.65240347 175:0.34380911 176:-0.084579912 177:0.019661357 178:-0.26889502 179:0.28509198 180:0.25991559 181:0.40820896 182:-0.37117156 183:0.50184437 184:-0.8112362 185:-0.6367359 186:-0.59776552 187:-0.31108409 188:0.13113155 189:-0.27892942 190:-0.12568725 191:-0.12924986 192:0.67025931 193:0.55739362 194:-0.18814478 195:0.14933687 196:0.12535653 197:-0.069109326 198:-0.14559426 199:0.20080911 200:0.025293845 201:7.5663916 202:-0.30071207 203:-3.8493967 204:-1.0975572 205:2.2859855 206:0.61443424 207:-1.5633282 208:1.5475496 209:-2.0088382 210:0.75273927 211:-1.0958676 212:-2.169196 213:1.0134789 214:-0.21191076 215:-0.43197917 216:-2.2178455 217:0.28352936 218:-1.0462684 219:0.0091744815 220:-1.4108991 221:-0.049499131 222:1.0416816 223:-0.77228323 224:0.65246038 225:0.34391666 226:-0.083999814 227:0.021280408 228:-0.26830696 229:0.28548832 230:0.26012492 231:0.40873392 232:-0.37056004 233:0.50168394 234:-0.81193623 235:-0.63574991 236:-0.59761191 237:-0.31019615 238:0.13191127 239:-0.27849994 240:-0.12444127 241:-0.12761369 242:0.66868692 243:0.55673342 244:-0.18895839 245:0.14903096 246:0.12403169 247:-0.068327353 248:-0.14521859 249:0.2003038 250:0.024013728 
0.0010935479919190214 1:7.459747 2:-0.29450708 3:-3.8422885 4:-1.182025 5:2.1565675 6:0.73529612 7:-1.4853143 8:1.1251455 9:-1.9261006 10:0.87771324 11:-1.2058319 12:-1.3460837 13:0.042198312 14:3.0985595 15:-0.10457662 16:-0.17126852 17:0.42534003 18:-0.78387788 19:-0.9822836 20:-0.30831429 21:0.23143276 22:1.5138743 23:-0.56399913 24:0.86101793 25:0.61603953 26:-0.041562217 27:0.16998492 28:-0.21357517 29:0.21670194 30:-0.00013091048 31:0.61062767 32:-0.7389218 33:0.56143478 34:-0.85370594 35:-0.85514803 36:-0.75457336 37:-0.27447986 38:-0.010672005 39:-0.33067237 40:-0.35381318 41:-0.44994221 42:0.30527351 43:0.43165687 44:0.16176662 45:0.035146904 46:0.13483886 47:0.00066287841 48:0.22636642 49:-0.21642069 50:-0.12045418 51:7.5382134 52:-0.29008548 53:-3.8246507 54:-1.1110098 55:2.2558479 56:0.64967586 57:-1.4741807 58:1.4368096 59:-1.9062531 60:0.71511137 61:-0.84103846 62:-2.2539522 63:1.8860688 64:1.2585359 65:-0.65266394 66:-1.2750561 67:-0.21728658 68:0.25235863 69:0.66282582 70:-1.4072643 71:-0.36236258 72:0.77064324 73:0.14060923 74:-0.69636163 75:0.53200535 76:-0.12736518 77:1.1302663 78:-0.31305114 79:0.20216115 80:-0.31864367 81:0.46342619 82:-0.42772818 83:0.27025655 84:-0.68218585 85:-0.59942239 86:-0.6362299 87:0.23603549 88:-0.2417151 89:-0.21001843 90:-0.38366769 91:-0.37128165 92:0.28004086 93:0.041977866 94:-0.065107547 95:0.20918856 96:0.04721749 97:0.074409643 98:0.24263302 99:-0.33325656 100:-0.051118722 101:7.566477 102:-0.3008017 103:-3.8495284 104:-1.0976513 105:2.2860918 106:0.61443103 107:-1.5631512 108:1.5476608 109:-2.0091155 110:0.7528612 111:-1.0958856 112:-2.1699017 113:1.0134967 114:-0.21174281 115:-0.43220259 116:-2.2176099 117:0.28324152 118:-1.0471087 119:0.0090562786 120:-1.4106127 121:-0.049157016 122:1.041506 123:-0.77267683 124:0.65240347 125:0.34380911 126:-0.084579912 127:0.019661357 128:-0.26889502 129:0.28509198 130:0.25991559 131:0.40820896 132:-0.37117156 133:0.50184437 134:-0.8112362 135:-0.6367359 136:-0.59776552 137:-0.31108409 138:0.13113155 139:-0.27892942 140:-0.12568725 141:-0.12924986 142:0.67025931 143:0.55739362 144:-0.18814478 145:0.14933687 146:0.12535653 147:-0.069109326 148:-0.14559426 149:0.20080911 150:0.025293845 151:7.5663916 152:-0.30071207 153:-3.8493967 154:-1.0975572 155:2.2859855 156:0.61443424 157:-1.5633282 158:1.5475496 159:-2.0088382 160:0.75273927 161:-1.0958676 162:-2.169196 163:1.0134789 164:-0.21191076 165:-0.43197917 166:-2.2178455 167:0.28352936 168:-1.0462684 169:0.0091744815 170:-1.4108991 171:-0.049499131 172:1.0416816 173:-0.77228323 174:0.65246038 175:0.34391666 176:-0.083999814 177:0.021280408 178:-0.26830696 179:0.28548832 180:0.26012492 181:0.40873392 182:-0.37056004 183:0.50168394 184:-0.81193623 185:-0.63574991 186:-0.59761191 187:-0.31019615 188:0.13191127 189:-0.27849994 190:-0.12444127 191:-0.12761369 192:0.66868692 193:0.55673342 194:-0.18895839 195:0.14903096 196:0.12403169 197:-0.068327353 198:-0.14521859 199:0.2003038 200:0.024013728 201:7.5664071 202:-0.30070073 203:-3.849402 204:-1.0976288 205:2.2861147 206:0.61449152 207:-1.5633074 208:1.5475217 209:-2.0090296 210:0.7527036 211:-1.0958114 212:-2.1696039 213:1.0134619 214:-0.21179398 215:-0.43187686 216:-2.2181293 217:0.28329989 218:-1.0466376 219:0.0095815542 220:-1.4112034 221:-0.049343684 222:1.0419581 223:-0.77244025 224:0.65244514 225:0.34353864 226:-0.084263577 227:0.021214593 228:-0.26834535 229:0.28541372 230:0.25980578 231:0.40906574 232:-0.37088346 233:0.50177597 234:-0.8123564 235:-0.63562942 236:-0.59821208 237:-0.31010245 238:0.13160759 239:-0.27835663 240:-0.12507527 241:-0.1278955 242:0.66934279 243:0.55676096 244:-0.18872729 245:0.14926248 246:0.1250951 247:-0.068972557 248:-0.14533479 249:0.20037591 250:0.025227395 
0.0071349852270399137 1:7.5691323 2:-0.2868679 3:-3.8026975 4:-1.0228907 5:2.2562673 6:0.69751133 7:-1.6231672 8:1.4522589 9:-2.1486195 10:0.81424729 11:-1.35698 12:-1.5927946 13:-0.24298985 14:0.46373192 15:-0.55695842 16:-0.96707665 17:0.45529627 18:-0.44537889 19:-1.2559306 20:0.11390214 21:0.097922146 22:0.99106677 23:1.3337268 24:-0.38660268 25:0.67724484 26:-0.29839271 27:1.4282794 28:-0.38779683 29:0.29844305 30:-0.32193081 31:0.66275059 32:-0.65708049 33:0.27179836 34:-0.83192567 35:-0.63175243 36:-0.68833755 37:-0.31671889 38:-0.070502919 39:-0.11983968 40:-0.49407068 41:-0.45131614 42:0.56998868 43:0.68989069 44:0.05937649 45:0.22459171 46:-0.046971026 47:-0.042247159 48:-0.065950419 49:0.23549528 50:-0.069111433 51:7.5691644 52:-0.28704218 53:-3.8026988 54:-1.0229273 55:2.2563086 56:0.69766041 57:-1.6234244 58:1.452091 59:-2.1487152 60:0.81421136 61:-1.3566246 62:-1.593299 63:-0.24260361 64:0.46377403 65:-0.55684588 66:-0.96713252 67:0.45622761 68:-0.44524115 69:-1.2565848 70:0.11307539 71:0.098176286 72:0.99134395 73:1.332418 74:-0.38573592 75:0.67635527 76:-0.3001381 77:1.4277429 78:-0.38848123 79:0.29844795 80:-0.32293876 81:0.66403004 82:-0.65751536 83:0.27163492 84:-0.83190736 85:-0.63096161 86:-0.68843018 87:-0.3179738 88:-0.069371644 89:-0.11921241 90:-0.49427391 91:-0.45179374 92:0.56924464 93:0.69020499 94:0.058771655 95:0.22332322 96:-0.045962935 97:-0.043459126 98:-0.064894813 99:0.23661633 100:-0.070472097 101:7.5692349 102:-0.28682443 103:-3.8025136 104:-1.022866 105:2.2561315 106:0.69783866 107:-1.6232654 108:1.4515746 109:-2.1487886 110:0.8148138 111:-1.3568804 112:-1.5927919 113:-0.24298806 114:0.46350339 115:-0.55690368 116:-0.96726769 117:0.45532671 118:-0.44519678 119:-1.2564036 120:0.1141029 121:0.09722277 122:0.99135111 123:1.3336495 124:-0.38626683 125:0.67771347 126:-0.29767415 127:1.42785 128:-0.38709325 129:0.29869034 130:-0.32302476 131:0.66285449 132:-0.65677123 133:0.27268076 134:-0.83170586 135:-0.6318385 136:-0.68809164 137:-0.31632852 138:-0.069583468 139:-0.12041288 140:-0.49466723 141:-0.45247376 142:0.56984849 143:0.6900023 144:0.058039697 145:0.22487325 146:-0.046624157 147:-0.041395215 148:-0.065999291 149:0.23450828 150:-0.067953114 151:7.569233 152:-0.28673185 153:-3.8023027 154:-1.0226982 155:2.2561812 156:0.69808406 157:-1.6231853 158:1.4519976 159:-2.14893 160:0.81510224 161:-1.3565041 162:-1.5923799 163:-0.24282152 164:0.46355296 165:-0.55689737 166:-0.96713827 167:0.45584319 168:-0.44489457 169:-1.255499 170:0.11363452 171:0.096813733 172:0.99040877 173:1.334209 174:-0.38748823 175:0.67780595 176:-0.29708937 177:1.4269597 178:-0.38631404 179:0.29842606 180:-0.32164584 181:0.66288558 182:-0.65613736 183:0.27457375 184:-0.83277877 185:-0.63189157 186:-0.68861987 187:-0.31707866 188:-0.070728017 189:-0.11958329 190:-0.49566439 191:-0.45287774 192:0.56888634 193:0.69045754 194:0.058546517 195:0.22541604 196:-0.047401038 197:-0.042550287 198:-0.06438741 199:0.23376254 200:-0.067435884 201:7.5692547 202:-0.28693663 203:-3.8026196 204:-1.0224854 205:2.2566281 206:0.69798655 207:-1.6234466 208:1.4514817 209:-2.1485926 210:0.81512564 211:-1.356449 212:-1.5930444 213:-0.24222961 214:0.46338032 215:-0.55681884 216:-0.96726059 217:0.45575146 218:-0.44439637 219:-1.2560121 220:0.11427047 221:0.097853928 222:0.99067055 223:1.3328743 224:-0.38762068 225:0.67679174 226:-0.29742264 227:1.4282958 228:-0.38827145 229:0.29913666 230:-0.3230248 231:0.66197758 232:-0.65750612 233:0.2712932 234:-0.83227903 235:-0.63109075 236:-0.68883713 237:-0.31560656 238:-0.06923842 239:-0.12114177 240:-0.49417718 241:-0.45114941 242:0.57076199 243:0.68911853 244:0.056863017 245:0.22239602 246:-0.045896751 247:-0.043985758 248:-0.06327275 249:0.23322415 250:-0.069087589 
0.0032072524971856653 1:7.4458589 2:-0.35688671 3:-3.6355125 4:-1.0811249 5:1.9514392 6:0.49178146 7:-1.6647807 8:1.7467321 9:-1.0676506 10:2.1763823 11:-0.68681655 12:0.34776368 13:-0.075539081 14:-0.60373311 15:0.39868607 16:0.27112521 17:-0.65707321 18:-0.98600107 19:-1.1301573 20:-0.18512114 21:-0.20971212 22:1.4225525 23:1.663116 24:-0.27767113 25:0.65741386 26:-0.28292512 27:1.5701715 28:0.24437198 29:-0.0614837 30:-0.58483929 31:0.73596774 32:0.0039927244 33:0.39527621 34:-0.55508213 35:0.075189127 36:-0.20342624 37:-0.42367445 38:0.04303686 39:0.26523111 40:-0.2765897 41:-0.087307862 42:0.21709559 43:0.15308474 44:0.32835955 45:-0.012404004 46:-0.13013647 47:-0.174117 48:0.31589384 49:0.2764913 50:0.68166773 51:7.4639867 52:-0.35881069 53:-3.6484487 54:-1.0820974 55:1.9754495 56:0.48621657 57:-1.7011104 58:1.7863445 59:-1.0524988 60:2.1477371 61:-0.53312419 62:0.28781725 63:-0.013843218 64:-1.0613978 65:0.4779038 66:-0.038544927 67:-0.46978983 68:-1.4245001 69:-1.3151466 70:-0.14909814 71:0.0069197437 72:1.6024931 73:1.7225304 74:0.29829437 75:0.59498441 76:-0.43850095 77:1.3800538 78:0.48507887 79:0.17383996 80:-0.21632037 81:0.39867225 82:0.50713462 83:0.34831722 84:-0.60564906 85:0.12052793 86:-0.22791835 87:0.1010694 88:-0.3128711 89:0.10030826 90:-0.22534387 91:-0.11947012 92:-0.030783496 93:-0.35892033 94:0.25656908 95:-0.0517415 96:-0.029324872 97:-0.074441172 98:0.5657439 99:-0.13477364 100:0.66120778 101:7.446988 102:-0.3804213 103:-3.6728154 104:-1.1461779 105:1.9799161 106:0.42733167 107:-1.6244925 108:1.8090622 109:-0.95320386 110:2.1710322 111:-0.5098292 112:-0.0095702225 113:0.6512881 114:-1.3305242 115:0.55375563 116:-0.76922764 117:-0.66635967 118:-1.7389283 119:-0.44136505 120:-1.2581434 121:-0.077708684 122:1.6683117 123:-0.087103319 124:1.1412441 125:0.42488596 126:-0.30759707 127:-0.012663116 128:0.55383858 129:0.15062011 130:0.39651205 131:0.19023554 132:0.77861163 133:0.63668977 134:-0.57375941 135:-0.1048178 136:-0.16638526 137:0.14112917 138:-0.098998398 139:-0.053002281 140:0.16296757 141:0.27819293 142:0.18468665 143:-0.2891905 144:-0.012134124 145:-0.10619234 146:0.13531597 147:-0.13806729 148:0.2948651 149:0.08773061 150:0.80099145 151:7.4077099 152:-0.36092828 153:-3.6545619 154:-1.1707355 155:1.9412039 156:0.43992085 157:-1.4987061 158:1.7180269 159:-0.82001548 160:2.0824073 161:-0.22677225 162:-0.30350777 163:2.0685587 164:0.32188344 165:0.28456276 166:0.010599737 167:-1.4006487 168:-0.17013071 169:0.89586208 170:-1.7837217 171:-0.73671622 172:1.1568766 173:0.31769389 174:-0.69019488 175:0.51867483 176:-0.061102288 177:1.1994541 178:0.25063234 179:-0.2439023 180:-0.62712175 181:0.60403215 182:0.11439239 183:0.43671468 184:-0.38521891 185:0.077011274 186:-0.15477909 187:-0.016165111 188:0.0041827256 189:0.21006578 190:-0.13736277 191:0.070895539 192:0.055517881 193:-0.34766785 194:0.16670707 195:-0.032201787 196:-0.042427188 197:-0.10818112 198:0.50308486 199:-0.11884411 200:0.74566198 201:7.4076367 202:-0.36088156 203:-3.6545169 204:-1.1706608 205:1.9413526 206:0.44004664 207:-1.4986592 208:1.7184943 209:-0.81962352 210:2.082486 211:-0.22707712 212:-0.3038369 213:2.0689742 214:0.32156653 215:0.28551414 216:0.011725827 217:-1.4006422 218:-0.17042523 219:0.89542079 220:-1.7834234 221:-0.73641209 222:1.1572417 223:0.31721869 224:-0.69009968 225:0.51806594 226:-0.060373317 227:1.2004522 228:0.25045398 229:-0.24474605 230:-0.62696109 231:0.60441671 232:0.11478498 233:0.43909619 234:-0.38482586 235:0.076910609 236:-0.15422983 237:-0.016403353 238:0.0028224683 239:0.2091033 240:-0.13675378 241:0.069701163 242:0.054981622 243:-0.3472232 244:0.16895044 245:-0.033565408 246:-0.045126716 247:-0.10886615 248:0.50289857 249:-0.12071904 250:0.74329248 
0.0036556529857885863 1:7.2417385 2:-0.48470662 3:-3.2624502 4:-1.3182123 5:1.3717103 6:0.22888402 7:-1.3995735 8:1.7069545 9:-1.6957608 10:1.810744 11:-2.47271 12:-0.26903098 13:-1.4934343 14:0.71901561 15:-0.92658628 16:-0.32422969 17:-0.41065137 18:0.097412738 19:1.193593 20:-1.4536364 21:-0.0551862 22:0.56611053 23:1.158032 24:0.10831167 25:1.2144068 26:-0.081346234 27:0.060062412 28:1.2387494 29:-0.34503136 30:0.26095279 31:0.30419256 32:0.62296598 33:0.67711806 34:-0.57917377 35:-0.29090746 36:-0.33039789 37:-0.60464132 38:0.58740863 39:0.31395461 40:0.47247735 41:0.014204442 42:-0.011259505 43:-0.088675126 44:-0.11108197 45:-0.45384364 46:-0.43475351 47:-0.51001722 48:0.02852428 49:-0.25855373 50:0.17117463 51:7.2823647 52:-0.46577727 53:-3.2987044 54:-1.2876111 55:1.4064086 56:0.32588637 57:-1.3886678 58:1.5226375 59:-1.7752537 60:1.8056127 61:-2.4643914 62:-0.73586761 63:-0.48141269 64:-0.1797645 65:-1.7416282 66:0.6317907 67:-1.2134549 68:0.81054995 69:-0.45637262 70:-0.50028025 71:-0.04971388 72:1.2410413 73:-0.7240351 74:0.94677303 75:0.6344051 76:0.72681127 77:1.131898 78:0.50682802 79:-0.51422101 80:-0.73644993 81:0.37027231 82:0.15136346 83:0.29415175 84:-0.75094704 85:-0.097644499 86:0.22369627 87:0.66777727 88:0.15939639 89:0.27593201 90:0.37748017 91:0.18660101 92:0.23725774 93:-0.43946157 94:-0.52920329 95:-0.22570837 96:-0.44623684 97:-0.57508249 98:-0.36860592 99:0.14870768 100:0.2946949 101:7.2646746 102:-0.47681941 103:-3.2789455 104:-1.2995308 105:1.3690314 106:0.28032355 107:-1.4180521 108:1.6937522 109:-1.7319482 110:1.8193821 111:-2.4528227 112:-0.45956146 113:-1.0726355 114:0.1630175 115:-1.3848984 116:0.078750167 117:-0.67412368 118:0.95251413 119:0.65451209 120:-1.175803 121:-0.027763182 122:0.86096834 123:0.84690914 124:1.1031701 125:1.5004562 126:0.079704819 127:-0.15970429 128:1.0044854 129:-0.38841236 130:-0.30149324 131:0.73129891 132:-0.16785582 133:0.4612054 134:-0.56196717 135:-0.056439998 136:-0.16834806 137:-0.55583702 138:0.47093511 139:0.23612443 140:0.17510551 141:-0.18045078 142:-0.21657346 143:-0.70689515 144:-0.10015674 145:-0.26659882 146:-0.45282691 147:-0.42476096 148:0.10298307 149:-0.54761448 150:0.22629558 151:7.215294 152:-0.47728043 153:-3.2805021 154:-1.3495022 155:1.3727861 156:0.24489892 157:-1.4146574 158:1.648782 159:-1.7064073 160:1.7723617 161:-2.4709517 162:-0.16596703 163:-1.686514 164:1.3294807 165:-0.53777989 166:-0.40369229 167:-0.28168833 168:-0.94801671 169:1.1757863 170:-1.46221 171:-0.10681971 172:0.55020063 173:0.67729349 174:-0.50286922 175:0.6055805 176:0.14076487 177:0.62363447 178:1.1111473 179:-0.44773499 180:0.046969498 181:0.048698219 182:0.87527862 183:0.51815585 184:-0.66911817 185:-0.29127871 186:-0.051924293 187:0.065894406 188:0.35536749 189:0.35228942 190:0.57931148 191:0.072329368 192:0.24937912 193:-0.22956113 194:-0.45898795 195:-0.26411145 196:-0.45863585 197:-0.62552823 198:-0.27683631 199:0.0605587 200:0.25526847 201:7.1976401 202:-0.46068346 203:-3.3096441 204:-1.3791804 205:1.3532702 206:0.30855503 207:-1.4197973 208:1.5492819 209:-1.6641825 210:1.7504594 211:-2.3061769 212:-0.23795154 213:-1.5298177 214:1.9083511 215:-0.32523768 216:-0.127946 217:-0.2604583 218:-1.7818873 219:0.66037257 220:-1.1517652 221:-0.014245354 222:0.7848435 223:-0.13853281 224:-0.34870664 225:0.17373557 226:0.50193599 227:0.86900964 228:0.86137277 229:-0.64223105 230:-0.58188216 231:0.2705228 232:0.40902642 233:0.30625751 234:-0.77634291 235:-0.11574839 236:0.16771182 237:0.33393398 238:0.093846066 239:0.34105105 240:0.37494998 241:-0.19186548 242:0.053732569 243:-0.57556186 244:-0.4586291 245:-0.32540241 246:-0.33094236 247:-0.53355861 248:-0.23308113 249:-0.11990546 250:0.25127762 
0.0015101586119824861 1:7.2056202 2:-0.41607718 3:-3.3447596 4:-1.3878539 5:1.3318084 6:0.44768361 7:-1.4566996 8:1.44755 9:-1.4928435 10:1.6420165 11:-1.3810223 12:-0.75540926 13:0.39779865 14:2.7222017 15:-0.81193142 16:1.0048267 17:-0.77649875 18:-1.1251697 19:-0.57194689 20:-0.30110743 21:0.37785724 22:1.6052849 23:0.022099439 24:1.0457346 25:0.65451996 26:0.12884993 27:-0.032607434 28:0.95270668 29:-0.55896228 30:-0.27133747 31:0.55220399 32:0.088328147 33:0.56497537 34:-0.70416636 35:-0.15655248 36:-0.221633 37:-0.59987544 38:0.54230123 39:0.29969906 40:0.44801334 41:-0.10432271 42:-7.1784787e-05 43:-0.23429764 44:-0.18995363 45:-0.50028995 46:-0.33563315 47:-0.51835589 48:0.00061726917 49:-0.16870273 50:0.1519802 51:7.2998237 52:-0.4224186 53:-3.3485395 54:-1.314582 55:1.4547269 56:0.31824507 57:-1.5149715 58:1.861324 59:-1.5974612 60:1.5301177 61:-1.4042115 62:-1.5378561 63:1.1899254 64:-0.42676022 65:-1.0461737 66:-1.1076459 67:-0.89136356 68:-1.4839267 69:0.72851864 70:-1.5892233 71:-0.071751811 72:0.93880343 73:-0.49000142 74:0.44700052 75:0.24000001 76:0.32784136 77:0.11553347 78:0.73428544 79:-0.64653438 80:-0.47722397 81:0.56345651 82:0.076788219 83:0.37496845 84:-0.63701938 85:0.19100577 86:0.088999867 87:-0.79378384 88:0.68304803 89:0.41738269 90:0.52583861 91:0.051871396 92:0.25944639 93:-0.15915967 94:-0.38808028 95:-0.33762098 96:-0.39713317 97:-0.513604 98:-0.20986027 99:0.039448592 100:0.23496463 101:7.2997867 102:-0.42234363 103:-3.3483866 104:-1.3146353 105:1.4545104 106:0.31821331 107:-1.5153971 108:1.8613077 109:-1.5974277 110:1.5301436 111:-1.4045066 112:-1.5374004 113:1.1902438 114:-0.42701671 115:-1.0456499 116:-1.1084296 117:-0.89162677 118:-1.4842489 119:0.72813767 120:-1.5893827 121:-0.072033331 122:0.93938065 123:-0.48929908 124:0.44576979 125:0.24035855 126:0.32706567 127:0.11432697 128:0.73472372 129:-0.64606215 130:-0.47683744 131:0.56433363 132:0.0770616 133:0.3751513 134:-0.63851372 135:0.19067554 136:0.088810157 137:-0.79436556 138:0.6836853 139:0.41822832 140:0.52633288 141:0.05066289 142:0.25672833 143:-0.16184712 144:-0.38946612 145:-0.33781264 146:-0.39825689 147:-0.51258657 148:-0.20968677 149:0.038769718 150:0.23453287 151:7.2997782 152:-0.42222422 153:-3.3484454 154:-1.3146483 155:1.4547601 156:0.31807632 157:-1.5150309 158:1.8608737 159:-1.5973407 160:1.5306028 161:-1.4048666 162:-1.5386241 163:1.1899363 164:-0.427497 165:-1.0459504 166:-1.1072449 167:-0.89190134 168:-1.4840613 169:0.72854092 170:-1.5898437 171:-0.072158981 172:0.93891973 173:-0.48959702 174:0.44623688 175:0.23958138 176:0.32721834 177:0.11514326 178:0.73524646 179:-0.64670959 180:-0.4772641 181:0.56512996 182:0.077387074 183:0.37522116 184:-0.6378138 185:0.19090947 186:0.089366515 187:-0.7936719 188:0.685227 189:0.41959385 190:0.52841771 191:0.051567273 192:0.25797706 193:-0.15935687 194:-0.38934123 195:-0.33923797 196:-0.39927934 197:-0.51244216 198:-0.20895537 199:0.037393706 200:0.23443871 201:7.2920648 202:-0.42090891 203:-3.3417121 204:-1.3163211 205:1.4415718 206:0.32308307 207:-1.4881805 208:1.8354653 209:-1.566803 210:1.5092495 211:-1.3414844 212:-1.5894582 213:1.491169 214:-0.030489392 215:-1.1146031 216:-0.87449126 217:-1.0627638 218:-1.0834691 219:1.0214341 220:-1.6463477 221:-0.21748279 222:0.80454054 223:-0.26022605 224:-0.071890613 225:0.27463284 226:0.35837278 227:0.53416041 228:0.68223904 229:-0.71098024 230:-0.79700521 231:0.64944049 232:-0.041161927 233:0.27134461 234:-0.55202852 235:0.23851292 236:0.044249057 237:-0.67782699 238:0.57734265 239:0.45322682 240:0.39399266 241:-0.052450356 242:0.079090327 243:-0.327846 244:-0.24334387 245:-0.31679382 246:-0.46540288 247:-0.44568406 248:-0.0094485936 249:-0.18162339 250:0.19303613 
0.0023020555049847427 1:7.2772348 2:-0.47449531 3:-3.2795994 4:-1.2749907 5:1.4429463 6:0.29082664 7:-1.3766425 8:1.5403898 9:-1.7132053 10:1.8659482 11:-2.3025363 12:-0.89156503 13:-0.24320858 14:0.066594909 15:-1.6460422 16:0.45040598 17:-1.4389755 18:-0.27520136 19:-0.79828672 20:-0.085948006 21:0.1031801 22:1.0742585 23:-0.98139461 24:-1.2799146 25:0.27578775 26:-0.012662162 27:0.45759547 28:1.3837499 29:-0.18366245 30:0.49924064 31:0.27303395 32:0.42392762 33:0.74376691 34:-0.48831485 35:-0.50307116 36:-0.37716529 37:-0.83528771 38:0.46357453 39:0.29260492 40:0.14089687 41:-0.27675419 42:-0.34684584 43:-0.83376397 44:-0.17701675 45:-0.059622425 46:-0.283379 47:-0.37632207 48:0.016378223 49:-0.38703386 50:0.13906973 51:7.2848775 52:-0.46792192 53:-3.2858855 54:-1.2813646 55:1.4360432 56:0.30394882 57:-1.3599251 58:1.4885301 59:-1.7489205 60:1.8309566 61:-2.4181723 62:-0.81164928 63:-0.34352183 64:-0.10466069 65:-1.7382699 66:0.61292789 67:-1.3984643 68:0.28191815 69:-0.75674574 70:-0.20839039 71:0.027666717 72:1.1994648 73:-1.219699 74:-0.296181 75:0.18948719 76:0.55224058 77:1.3741661 78:0.82477862 79:-0.33010484 80:0.069650972 81:-0.061340401 82:0.87996728 83:0.60550343 84:-0.64636948 85:-0.484762 86:-0.21034278 87:-0.17315264 88:0.57908669 89:0.34677555 90:0.4666997 91:0.14246831 92:-0.026576689 93:0.095843578 94:-0.16201002 95:-0.47672178 96:-0.44578548 97:-0.50344325 98:0.13232719 99:-0.39557713 100:0.11408966 101:7.2811008 102:-0.4689388 103:-3.2967317 104:-1.2893567 105:1.3924267 106:0.3265393 107:-1.3846037 108:1.5645965 109:-1.7571926 110:1.8213833 111:-2.4800788 112:-0.68111632 113:-0.64118237 114:-0.16672711 115:-1.7145537 116:0.54958524 117:-1.0727731 118:1.0436109 119:-0.163507 120:-0.70539087 121:-0.039058584 122:1.1698633 123:-0.27398167 124:1.3451171 125:0.97983745 126:0.59732542 127:0.71458847 128:0.58582626 129:-0.52998345 130:-0.86151215 131:0.63409366 132:-0.19296238 133:0.23349345 134:-0.74063454 135:0.060343548 136:0.2262957 137:0.52086624 138:0.12815385 139:0.24906635 140:0.22195225 141:0.00066847076 142:0.081786351 143:-0.74026694 144:-0.49662819 145:-0.17882884 146:-0.45638173 147:-0.57565275 148:-0.44994012 149:0.050466697 150:0.35918516 151:7.2811008 152:-0.4689388 153:-3.2967317 154:-1.2893567 155:1.3924267 156:0.3265393 157:-1.3846037 158:1.5645965 159:-1.7571926 160:1.8213833 161:-2.4800788 162:-0.68111632 163:-0.64118237 164:-0.16672711 165:-1.7145537 166:0.54958524 167:-1.0727731 168:1.0436109 169:-0.163507 170:-0.70539087 171:-0.039058584 172:1.1698633 173:-0.27398167 174:1.3451171 175:0.97983745 176:0.59732542 177:0.71458847 178:0.58582626 179:-0.52998345 180:-0.86151215 181:0.63409366 182:-0.19296238 183:0.23349345 184:-0.74063454 185:0.060343548 186:0.2262957 187:0.52086624 188:0.12815385 189:0.24906635 190:0.22195225 191:0.00066847076 192:0.081786351 193:-0.74026694 194:-0.49662819 195:-0.17882884 196:-0.45638173 197:-0.57565275 198:-0.44994012 199:0.050466697 200:0.35918516 201:7.2811008 202:-0.4689388 203:-3.2967317 204:-1.2893567 205:1.3924267 206:0.3265393 207:-1.3846037 208:1.5645965 209:-1.7571926 210:1.8213833 211:-2.4800788 212:-0.68111632 213:-0.64118237 214:-0.16672711 215:-1.7145537 216:0.54958524 217:-1.0727731 218:1.0436109 219:-0.163507 220:-0.70539087 221:-0.039058584 222:1.1698633 223:-0.27398167 224:1.3451171 225:0.97983745 226:0.59732542 227:0.71458847 228:0.58582626 229:-0.52998345 230:-0.86151215 231:0.63409366 232:-0.19296238 233:0.23349345 234:-0.74063454 235:0.060343548 236:0.2262957 237:0.52086624 238:0.12815385 239:0.24906635 240:0.22195225 241:0.00066847076 242:0.081786351 243:-0.74026694 244:-0.49662819 245:-0.17882884 246:-0.45638173 247:-0.57565275 248:-0.44994012 249:0.050466697 250:0.35918516 
0.00019640059769731854 1:7.2811008 2:-0.4689388 3:-3.2967317 4:-1.2893567 5:1.3924267 6:0.3265393 7:-1.3846037 8:1.5645965 9:-1.7571926 10:1.8213833 11:-2.4800788 12:-0.68111632 13:-0.64118237 14:-0.16672711 15:-1.7145537 16:0.54958524 17:-1.0727731 18:1.0436109 19:-0.163507 20:-0.70539087 21:-0.039058584 22:1.1698633 23:-0.27398167 24:1.3451171 25:0.97983745 26:0.59732542 27:0.71458847 28:0.58582626 29:-0.52998345 30:-0.86151215 31:0.63409366 32:-0.19296238 33:0.23349345 34:-0.74063454 35:0.060343548 36:0.2262957 37:0.52086624 38:0.12815385 39:0.24906635 40:0.22195225 41:0.00066847076 42:0.081786351 43:-0.74026694 44:-0.49662819 45:-0.17882884 46:-0.45638173 47:-0.57565275 48:-0.44994012 49:0.050466697 50:0.35918516 51:7.2811008 52:-0.4689388 53:-3.2967317 54:-1.2893567 55:1.3924267 56:0.3265393 57:-1.3846037 58:1.5645965 59:-1.7571926 60:1.8213833 61:-2.4800788 62:-0.68111632 63:-0.64118237 64:-0.16672711 65:-1.7145537 66:0.54958524 67:-1.0727731 68:1.0436109 69:-0.163507 70:-0.70539087 71:-0.039058584 72:1.1698633 73:-0.27398167 74:1.3451171 75:0.97983745 76:0.59732542 77:0.71458847 78:0.58582626 79:-0.52998345 80:-0.86151215 81:0.63409366 82:-0.19296238 83:0.23349345 84:-0.74063454 85:0.060343548 86:0.2262957 87:0.52086624 88:0.12815385 89:0.24906635 90:0.22195225 91:0.00066847076 92:0.081786351 93:-0.74026694 94:-0.49662819 95:-0.17882884 96:-0.45638173 97:-0.57565275 98:-0.44994012 99:0.050466697 100:0.35918516 101:7.2811008 102:-0.4689388 103:-3.2967317 104:-1.2893567 105:1.3924267 106:0.3265393 107:-1.3846037 108:1.5645965 109:-1.7571926 110:1.8213833 111:-2.4800788 112:-0.68111632 113:-0.64118237 114:-0.16672711 115:-1.7145537 116:0.54958524 117:-1.0727731 118:1.0436109 119:-0.163507 120:-0.70539087 121:-0.039058584 122:1.1698633 123:-0.27398167 124:1.3451171 125:0.97983745 126:0.59732542 127:0.71458847 128:0.58582626 129:-0.52998345 130:-0.86151215 131:0.63409366 132:-0.19296238 133:0.23349345 134:-0.74063454 135:0.060343548 136:0.2262957 137:0.52086624 138:0.12815385 139:0.24906635 140:0.22195225 141:0.00066847076 142:0.081786351 143:-0.74026694 144:-0.49662819 145:-0.17882884 146:-0.45638173 147:-0.57565275 148:-0.44994012 149:0.050466697 150:0.35918516 151:7.3474477 152:-0.56738769 153:-3.0708031 154:-1.8472027 155:0.52204481 156:0.02911645 157:-2.0458365 158:1.4830193 159:-1.3399554 160:1.4921313 161:-3.0503915 162:-0.41560633 163:-0.36016786 164:-0.064039718 165:-1.4228577 166:0.33725076 167:-1.0547084 168:1.4018554 169:-0.25167595 170:-0.47228706 171:0.16973148 172:1.1641826 173:-0.37011871 174:1.1911739 175:0.70363869 176:0.46467535 177:0.23977589 178:0.62176839 179:-0.36727085 180:-0.98570876 181:0.36252554 182:0.33739615 183:-0.65954332 184:-0.68030219 185:0.67726129 186:0.59414095 187:0.24315581 188:-0.058588144 189:0.43507492 190:-0.20279309 191:0.1530643 192:0.079629069 193:-0.90048285 194:-0.29763506 195:-0.46133777 196:-0.95721193 197:-0.49756662 198:-0.41675111 199:0.20887609 200:0.01414371 201:7.3276457 202:-0.57671846 203:-3.0511815 204:-1.8596612 205:0.49786386 206:-0.025963923 207:-2.0743994 208:1.6176529 209:-1.305629 210:1.4899011 211:-3.0233176 212:-0.15984677 213:-0.86867528 214:0.34932369 215:-1.0170228 216:-0.21204585 217:-0.60791438 218:1.1995578 219:0.67791532 220:-1.0035123 221:0.18043911 222:0.79372172 223:0.8515889 224:0.79509969 225:1.2120631 226:-0.10613395 227:-0.64957748 228:1.0990434 229:-0.21053436 230:-0.30908331 231:0.39605971 232:0.48894076 233:-0.38231406 234:-0.50354669 235:0.52436542 236:0.13967785 237:-0.90908203 238:0.32457009 239:0.43597907 240:-0.20960158 241:-0.010461072 242:-0.21014382 243:-0.7575915 244:0.12732583 245:-0.60296826 246:-0.96009219 247:-0.35967863 248:0.14646998 249:-0.38416739 250:-0.13397626 
